tree
version=v3
num_class=1
num_tree_per_iteration=1
label_index=0
max_feature_idx=9
objective=regression
feature_names=GrLivArea GarageCars TotalBsmtSF YearBuilt YearRemodAdd BsmtFinSF1 Fireplaces 1stFlrSF GarageYrBlt 2ndFlrSF
feature_infos=[334:5642] [0:4] [0:6110] [1872:2010] [1950:2010] [0:5644] [0:3] [334:4692] [1900:2010] [0:2065]
tree_sizes=2667 2721 2714 2705 2719 2710 2714 2718 2718 2720 2717 2709 2713 2720 2712 2702 2708 2713 2708 2715 2728 2720 2700 2718 2723 2722 2720 2712 2720 2704 2712 2699 2711 2712 2711 2724 2719 2704 2711 2717 2714 2712 2706 2717 2726 2721 2721 2722 2714 2719 2729 2708 2724 2705 2726 2715 2717 2715 2726 2713 2715 2725 2725 2726 2716 2721 2718 2715 2722 2728 2727 2724 2721 2719 2728 2721 2729 2720 2727 2715 2720 2727 2717 2721 2716 2710 2734 2711 2718 2731 2726 2728 2715 2715 2732 2713 2725 2718 2716 2717

Tree=0
num_leaves=31
num_cat=0
split_feature=1 0 0 5 2 2 4 3 9 0 0 3 0 8 0 8 1 4 0 2 6 2 6 3 5 0 5 0 5 3
split_gain=3.36101e+12 1.25302e+12 5.6297e+11 3.72798e+11 3.03857e+11 2.47777e+11 2.18928e+11 1.49816e+11 1.14124e+11 1.00733e+11 1.00271e+11 8.55439e+10 8.46768e+10 6.8399e+10 6.57847e+10 6.54626e+10 3.74428e+10 3.56364e+10 4.19297e+10 3.4566e+10 2.85684e+10 2.48202e+10 2.12282e+10 2.07477e+10 1.95223e+10 1.78406e+10 1.58162e+10 1.37296e+10 1.34601e+10 1.26795e+10
threshold=2.5000000000000004 1411.5000000000002 2661.0000000000005 1162.5000000000002 1050.5000000000002 1050.5000000000002 1992.5000000000002 1982.5000000000002 768.50000000000011 1800.5000000000002 1970.5000000000002 1919.5000000000002 1919.5000000000002 1983.5000000000002 1642.5000000000002 1945.5000000000002 1.5000000000000002 1979.5000000000002 1928.5000000000002 546.50000000000011 1.5000000000000002 1618.5000000000002 1.0000000180025095e-35 1976.5000000000002 951.00000000000011 1201.5000000000002 811.00000000000011 1660.5000000000002 349.50000000000006 2003.5000000000002
decision_type=2 2 2 2 2 2 2 2 2 2 2 2 2 10 2 10 2 2 2 2 2 2 2 2 2 2 2 2 2 2
left_child=1 5 3 6 8 15 -2 9 16 22 21 -10 -5 -7 26 -1 -3 -13 27 -17 -11 -8 -6 28 -16 -15 -9 -19 -21 -12
right_child=2 4 -4 12 7 13 10 14 11 20 29 17 -14 25 24 19 -18 18 -20 23 -22 -23 -24 -25 -26 -27 -28 -29 -30 -31
leaf_value=180092.51906500335 180744.68393557696 180473.02359712357 183761.8834370418 182294.48639041095 180569.27203089645 180569.38814650208 181451.4093647413 181181.98693421893 180504.01739788541 181198.91250398429 182088.41436342231 180859.06162608802 183175.51056814531 180681.46012613454 181603.8161523467 180102.42536376475 180788.40451050291 180906.37571824822 181498.60107512077 180266.96461910414 181674.55957884504 181868.94100108804 180942.0910773529 180563.59513058703 181926.91078985552 181018.02155219673 181515.80211488716 181175.27088424019 180427.62323384386 182431.94388520261
leaf_weight=115 20 59 20 20 21 133 35 40 26 28 22 39 24 21 45 42 104 28 35 88 23 24 56 67 32 63 22 59 128 21
leaf_count=115 20 59 20 20 21 133 35 40 26 28 22 39 24 21 45 42 104 28 35 88 23 24 56 67 32 63 22 59 128 21
internal_value=180921 180738 182177 181986 181061 180434 181701 181316 180868 181069 181889 181036 182775 180710 181543 180298 180674 181122 181206 180370 181413 181621 180840 180410 181738 180934 181300 181089 180362 182256
internal_weight=0 1274 186 166 617 657 122 267 350 128 102 187 44 217 139 440 163 161 122 325 51 59 77 283 77 84 62 87 216 43
internal_count=1460 1274 186 166 617 657 122 267 350 128 102 187 44 217 139 440 163 161 122 325 51 59 77 283 77 84 62 87 216 43
is_linear=0
shrinkage=1


Tree=1
num_leaves=31
num_cat=0
split_feature=1 0 0 5 2 2 4 3 9 0 0 3 0 8 0 8 1 4 0 2 6 2 6 3 0 5 0 5 0 5
split_gain=3.29413e+12 1.22808e+12 5.51767e+11 3.6538e+11 2.9781e+11 2.42846e+11 2.14572e+11 1.46835e+11 1.11853e+11 9.87281e+10 9.82754e+10 8.38415e+10 8.29917e+10 6.70379e+10 6.44756e+10 6.41599e+10 3.66977e+10 3.49272e+10 4.10953e+10 3.38782e+10 2.79999e+10 2.43263e+10 2.08057e+10 2.03349e+10 1.94585e+10 2.06655e+10 1.74856e+10 1.55015e+10 1.34563e+10 1.31922e+10
threshold=2.5000000000000004 1411.5000000000002 2661.0000000000005 1162.5000000000002 1050.5000000000002 1050.5000000000002 1992.5000000000002 1982.5000000000002 768.50000000000011 1800.5000000000002 1970.5000000000002 1919.5000000000002 1919.5000000000002 1983.5000000000002 1642.5000000000002 1945.5000000000002 1.5000000000000002 1979.5000000000002 1928.5000000000002 546.50000000000011 1.5000000000000002 1618.5000000000002 1.0000000180025095e-35 1976.5000000000002 2091.5000000000005 951.00000000000011 1201.5000000000002 811.00000000000011 1660.5000000000002 349.50000000000006
decision_type=2 2 2 2 2 2 2 2 2 2 2 2 2 10 2 10 2 2 2 2 2 2 2 2 2 2 2 2 2 2
left_child=1 5 3 6 8 15 -2 9 16 22 21 -10 -5 -7 27 -1 -3 -13 28 -17 -11 -8 -6 29 25 -16 -15 -9 -19 -21
right_child=2 4 -4 12 7 13 10 14 11 20 -12 17 -14 26 24 19 -18 18 -20 23 -22 -23 -24 -25 -26 -27 -28 -29 -30 -31
leaf_value=-820.39003702445655 -174.74684790039063 -443.6905734718452 2812.2806715698243 1359.5576552734376 -348.40463239397326 -348.28966762628772 524.91134068080351 258.18313021850588 -413.0066998760517 274.93944043840685 1321.6388590116278 -61.512928685897435 2231.7715527343748 -237.33841622488839 548.92184688683722 -810.58279854910711 -131.46347143613374 -14.671969604492189 571.63113197544646 -647.68894886363637 745.83004288383154 938.26770182291671 20.686231774602614 -354.02475046641791 1052.3048862092392 950.20707135881696 95.857401924738809 588.66016135475854 251.53424146490582 -488.63694998741153
leaf_weight=115 20 59 20 20 21 133 35 40 26 28 43 39 24 21 33 42 104 28 35 88 23 24 56 67 23 21 63 22 59 128
leaf_count=115 20 59 20 20 21 133 35 40 26 28 43 39 24 21 33 42 104 28 35 88 23 24 56 67 23 21 63 22 59 128
internal_value=0 -181.495 1243.15 1054.09 138.888 -482.373 772.343 390.427 -53.0009 146.049 958.047 113.902 1835.31 -208.607 615.465 -617.389 -244.478 198.992 282.269 -545.558 487.302 693.056 -79.9749 -506.225 808.724 704.977 12.5584 375.449 165.859 -553.436
internal_weight=0 1274 186 166 617 657 122 267 350 128 102 187 44 217 139 440 163 161 122 325 51 59 77 283 77 54 84 62 87 216
internal_count=1460 1274 186 166 617 657 122 267 350 128 102 187 44 217 139 440 163 161 122 325 51 59 77 283 77 54 84 62 87 216
is_linear=0
shrinkage=0.01


Tree=2
num_leaves=31
num_cat=0
split_feature=1 0 0 5 2 2 4 3 9 0 0 8 3 0 0 8 2 1 4 0 6 3 2 0 6 0 5 5 2 0
split_gain=3.22858e+12 1.20365e+12 5.40786e+11 3.58109e+11 2.91884e+11 2.38229e+11 2.10302e+11 1.43913e+11 1.09627e+11 9.67635e+10 9.63198e+10 8.40992e+10 8.21731e+10 8.13402e+10 6.31925e+10 4.40514e+10 4.01032e+10 3.59674e+10 3.42322e+10 4.02775e+10 2.74427e+10 2.51923e+10 2.38422e+10 2.12984e+10 2.03917e+10 1.90713e+10 2.02543e+10 1.5193e+10 1.45476e+10 1.31886e+10
threshold=2.5000000000000004 1411.5000000000002 2661.0000000000005 1162.5000000000002 1050.5000000000002 1149.5000000000002 1992.5000000000002 1982.5000000000002 768.50000000000011 1800.5000000000002 1970.5000000000002 1946.5000000000002 1919.5000000000002 1919.5000000000002 1642.5000000000002 1978.5000000000002 546.50000000000011 1.5000000000000002 1979.5000000000002 1928.5000000000002 1.5000000000000002 1955.5000000000002 1618.5000000000002 980.50000000000011 1.0000000180025095e-35 2091.5000000000005 951.00000000000011 811.00000000000011 683.50000000000011 1660.5000000000002
decision_type=2 2 2 2 2 2 2 2 2 2 2 10 2 2 2 8 2 2 2 2 2 2 2 2 2 2 2 2 2 2
left_child=1 5 3 6 8 11 -2 9 17 24 22 28 -10 -5 27 -7 -13 -3 -14 29 -11 -18 -8 -23 -6 26 -16 -9 -1 -20
right_child=2 4 -4 13 7 15 10 14 12 20 -12 16 18 -15 25 -17 21 -19 19 -21 -22 23 -24 -25 -26 -27 -28 -29 -30 -31
leaf_value=-937.4858430989583 -172.99937475585941 -439.25367055084746 2784.1578203125 1345.9620322265625 -344.92057663690474 -290.47198267618819 519.66222516741072 255.60129509735108 -408.8766455078125 272.19005288260325 1308.4224781976743 -799.02721727324695 -60.897788962339746 2209.4538541666666 543.43262813683714 80.016477621050839 -601.68011244690535 -130.14883346557616 -14.525250723702568 565.91482198660719 738.37174889605978 -530.0118547028186 928.8850016276042 -345.10042760944367 20.479371556554522 1041.7818155570653 940.70500290643599 582.77356489701708 -713.95449641047298 249.01890146029197
leaf_weight=48 20 59 20 20 21 60 35 40 26 28 43 41 39 24 33 69 103 104 28 35 23 102 24 160 56 23 21 22 74 59
leaf_count=48 20 59 20 20 21 60 35 40 26 28 43 41 39 24 33 69 103 104 28 35 23 102 24 160 56 23 21 22 74 59
internal_value=0 -179.68 1230.71 1043.55 137.499 -477.549 764.62 386.523 -52.4709 144.589 948.467 -571.671 112.763 1816.96 609.31 -92.3037 -502.489 -242.033 197.003 279.446 482.429 -469.179 686.126 -417.089 -79.1752 800.637 697.927 371.695 -801.901 164.2
internal_weight=0 1274 186 166 617 657 122 267 350 128 102 528 187 44 139 129 406 163 161 122 51 365 59 262 77 77 54 62 122 87
internal_count=1460 1274 186 166 617 657 122 267 350 128 102 528 187 44 139 129 406 163 161 122 51 365 59 262 77 77 54 62 122 87
is_linear=0
shrinkage=0.01


Tree=3
num_leaves=31
num_cat=0
split_feature=1 0 0 5 1 2 4 2 4 0 0 0 8 8 9 4 5 0 0 5 0 4 2 7 3 0 0 9 5 5
split_gain=3.16433e+12 1.17969e+12 5.30025e+11 3.50982e+11 2.86246e+11 2.33536e+11 2.06117e+11 1.95745e+11 9.84361e+10 9.4403e+10 7.97215e+10 7.76984e+10 6.44539e+10 6.18001e+10 5.50242e+10 4.66158e+10 4.28288e+10 3.01767e+10 2.89712e+10 2.8198e+10 2.71249e+10 2.54225e+10 2.33678e+10 2.12726e+10 1.77921e+10 1.7268e+10 1.67845e+10 1.63305e+10 1.56408e+10 1.24829e+10
threshold=2.5000000000000004 1411.5000000000002 2661.0000000000005 1162.5000000000002 1.5000000000000002 1050.5000000000002 1992.5000000000002 1040.5000000000002 1983.5000000000002 1970.5000000000002 1919.5000000000002 1642.5000000000002 1983.5000000000002 1958.5000000000002 781.50000000000011 1979.5000000000002 1200.5000000000002 1751.0000000000002 2261.0000000000005 222.50000000000003 1777.5000000000002 1976.5000000000002 1618.5000000000002 685.00000000000011 1994.5000000000002 911.00000000000011 1201.5000000000002 686.50000000000011 811.00000000000011 359.00000000000006
decision_type=2 2 2 2 2 2 2 2 2 2 2 2 10 10 2 2 2 2 2 2 2 2 2 2 2 2 2 2 2 2
left_child=1 5 3 6 19 13 -2 14 20 22 -5 24 -7 23 -6 -16 18 -17 -13 -3 -9 29 -8 -1 -10 -25 -14 -21 -26 -15
right_child=2 4 -4 10 7 12 9 8 11 -11 -12 16 26 21 15 17 -18 -19 -20 27 -22 -23 -24 25 28 -27 -28 -29 -30 -31
leaf_value=-1007.9105258413462 -171.269375 -451.27981900798738 2756.3162922363281 1332.5024619140625 -121.5877335859419 -341.27122384895955 514.46558914620539 -43.302066018240794 69.893271354493649 1295.3382558139535 2187.3592838541667 528.33572977373672 -232.28184175037205 -712.31225725446438 -147.4449169921875 70.960634593134344 1142.5851913088843 401.62060734403303 958.08667596726184 -305.8262957763672 383.91887610394019 -398.30376123853955 919.59614583333325 -849.93382662259614 282.39875890395223 -628.78731933593747 94.166145334395154 76.022038686843146 634.82765234375006 -514.99302228190106
leaf_weight=26 20 67 20 20 111 133 35 42 21 43 24 62 21 56 35 46 21 69 21 24 23 121 24 52 34 110 63 21 20 75
leaf_count=26 20 67 20 20 111 133 35 42 21 43 24 62 21 56 35 46 21 69 21 24 23 121 24 52 34 110 63 21 20 75
internal_value=0 -177.884 1218.41 1033.12 136.124 -472.773 756.973 237.559 441.181 938.982 1798.79 562.217 -204.307 -605.176 47.2 172.103 739.144 269.357 637.068 -321.242 107.868 -502.812 679.264 -742.387 316.878 -699.773 12.5541 -127.63 412.928 -599.343
internal_weight=0 1274 186 166 617 657 122 505 244 102 44 179 217 440 261 150 104 115 83 112 65 252 59 188 75 162 84 45 54 131
internal_count=1460 1274 186 166 617 657 122 505 244 102 44 179 217 440 261 150 104 115 83 112 65 252 59 188 75 162 84 45 54 131
is_linear=0
shrinkage=0.01


Tree=4
num_leaves=31
num_cat=0
split_feature=1 0 0 2 2 2 4 3 5 9 0 0 8 3 0 8 2 1 4 0 6 3 6 0 5 7 5 2 0 2
split_gain=3.10136e+12 1.15622e+12 5.19477e+11 3.44741e+11 2.80615e+11 2.29283e+11 1.58138e+11 1.38465e+11 1.19725e+11 1.05594e+11 9.92384e+10 9.30132e+10 8.09349e+10 7.95476e+10 6.08505e+10 4.22402e+10 3.89407e+10 3.47121e+10 3.27792e+10 3.91035e+10 2.68603e+10 2.43886e+10 1.98406e+10 1.83674e+10 1.95277e+10 1.83182e+10 1.45861e+10 1.40555e+10 1.27342e+10 1.27149e+10
threshold=2.5000000000000004 1411.5000000000002 2661.0000000000005 1671.5000000000002 1050.5000000000002 1149.5000000000002 1993.5000000000002 1982.5000000000002 1275.5000000000002 768.50000000000011 1966.0000000000002 1800.5000000000002 1946.5000000000002 1919.5000000000002 1642.5000000000002 1978.5000000000002 546.50000000000011 1.5000000000000002 1979.5000000000002 1928.5000000000002 1.5000000000000002 1973.5000000000002 1.0000000180025095e-35 2091.5000000000005 951.00000000000011 980.50000000000011 811.00000000000011 683.50000000000011 1660.5000000000002 1484.5000000000002
decision_type=2 2 2 2 2 2 2 2 2 2 2 2 10 2 2 8 2 2 2 2 2 2 2 2 2 2 2 2 2 2
left_child=1 5 3 6 9 12 -2 11 -5 17 29 22 27 -11 26 -7 -14 -3 -15 28 -13 25 -6 24 -16 -18 -9 -1 -20 -8
right_child=2 4 -4 8 7 15 10 14 -10 13 -12 20 16 18 23 -17 21 -19 19 -21 -22 -23 -24 -25 -26 -27 -28 -29 -30 -31
leaf_value=-919.51283528645831 -86.477848074776801 -431.29443799293654 2728.7531574707032 1247.8822509765625 -339.89304315476193 -284.15455063883462 380.17848901367188 250.54005328035353 2171.4849156250002 -402.57677762545069 1247.1739648437501 264.85406188964845 -784.72445693597558 -58.823106720753202 532.71493045691284 78.637419451285098 -587.469871758355 -127.63146546657268 -14.953878173828125 556.48234375000004 726.06273713485064 -333.59593606454359 20.535284115246363 1021.8623777173914 922.79712245396206 -417.37646413617432 571.11112926136366 -699.79448202597121 244.01048451569122 710.30749441964292
leaf_weight=48 21 59 20 32 21 60 20 40 25 26 40 28 41 39 33 69 144 104 28 35 23 108 56 23 21 113 22 74 59 28
leaf_count=48 21 59 20 32 21 60 20 40 25 26 40 28 41 39 33 69 144 104 28 35 23 108 56 23 21 113 22 74 59 28
internal_value=0 -176.105 1206.22 1022.79 134.762 -468.046 693.239 378.932 1652.97 -51.5039 879.308 141.622 -560.384 110.661 597.462 -90.103 -492.515 -237.546 193.545 274.22 472.85 -459.692 -77.7634 785.21 684.414 -512.682 364.291 -786.241 160.666 572.754
internal_weight=0 1274 186 166 617 657 109 267 57 350 88 128 528 187 139 129 406 163 161 122 51 365 77 77 54 257 62 122 87 48
internal_count=1460 1274 186 166 617 657 109 267 57 350 88 128 528 187 139 129 406 163 161 122 51 365 77 77 54 257 62 122 87 48
is_linear=0
shrinkage=0.01


Tree=5
num_leaves=31
num_cat=0
split_feature=1 0 0 5 1 2 4 2 4 0 8 0 0 9 4 5 8 2 0 0 5 0 3 2 0 3 9 5 2 3
split_gain=3.03964e+12 1.13321e+12 5.0914e+11 3.37953e+11 2.75603e+11 2.24721e+11 1.98798e+11 1.88215e+11 9.47278e+10 9.13287e+10 7.93242e+10 7.72835e+10 7.47493e+10 5.28728e+10 4.49002e+10 4.1501e+10 4.13996e+10 3.81658e+10 2.90956e+10 2.81057e+10 2.73202e+10 2.59486e+10 2.41162e+10 2.23527e+10 2.04062e+10 1.71846e+10 1.58267e+10 1.50491e+10 1.37758e+10 1.22945e+10
threshold=2.5000000000000004 1411.5000000000002 2661.0000000000005 1162.5000000000002 1.5000000000000002 1149.5000000000002 1992.5000000000002 1040.5000000000002 1983.5000000000002 1970.5000000000002 1946.5000000000002 1919.5000000000002 1642.5000000000002 781.50000000000011 1979.5000000000002 1200.5000000000002 1978.5000000000002 546.50000000000011 1751.0000000000002 2261.0000000000005 222.50000000000003 1777.5000000000002 1955.5000000000002 1618.5000000000002 980.50000000000011 1994.5000000000002 686.50000000000011 811.00000000000011 683.50000000000011 2003.5000000000002
decision_type=2 2 2 2 2 2 2 2 2 2 10 2 2 2 2 2 8 2 2 2 2 2 2 2 2 2 2 2 2 2
left_child=1 5 3 6 20 10 -2 13 21 23 28 -5 25 -6 -15 19 -7 -12 -16 -14 -3 -9 -19 -8 -24 -10 -22 -27 -1 -11
right_child=2 4 -4 11 7 16 9 8 12 29 17 -13 15 14 18 -17 -18 22 -20 -21 26 -23 24 -25 -26 27 -28 -29 -30 -31
leaf_value=-910.31768229166676 -170.02626025390626 -443.36529284121389 2701.4655620117187 1304.7819609374999 -119.17043417578346 -281.31300684611006 503.70320758928574 -42.216235111781529 67.97910761151995 1105.6388920454547 -776.87723608993895 2146.4661653645835 517.3080072612147 -144.89115485491072 69.358901048743206 1122.0230868094309 77.851047427412396 -584.73546533677188 394.04156108469203 940.59092633928572 -300.21922566731769 375.63834196671195 -514.66221947763484 899.9372639973958 -333.66492869186408 277.06936459709618 75.692887747628347 622.76825976562498 -692.79652792440879 1443.9128311011905
leaf_weight=48 20 67 20 20 111 60 35 42 21 22 41 24 62 35 46 21 69 103 69 21 24 23 102 24 160 34 21 20 74 21
leaf_count=48 20 67 20 20 111 60 35 42 21 22 41 24 62 35 46 21 69 103 69 21 24 23 102 24 160 34 21 20 74 21
internal_value=0 -174.344 1194.16 1012.56 133.415 -463.365 741.589 232.947 432.614 920.337 -554.78 1763.88 551.348 46.2846 168.721 724.885 -89.202 -487.59 264.168 624.404 -315.368 105.64 -455.095 664.883 -404.13 310.71 -124.794 405.106 -778.379 1270.84
internal_weight=0 1274 186 166 617 657 122 505 244 102 528 44 179 261 150 104 129 406 115 83 112 65 365 59 262 75 45 54 122 43
internal_count=1460 1274 186 166 617 657 122 505 244 102 528 44 179 261 150 104 129 406 115 83 112 65 365 59 262 75 45 54 122 43
is_linear=0
shrinkage=0.01


Tree=6
num_leaves=31
num_cat=0
split_feature=1 0 0 2 1 2 2 4 5 0 4 0 8 8 9 4 5 0 0 5 0 4 7 3 0 0 9 5 2 5
split_gain=2.97915e+12 1.11066e+12 4.99008e+11 3.33286e+11 2.70118e+11 2.20359e+11 1.8447e+11 1.51884e+11 1.15345e+11 9.53664e+10 9.28427e+10 7.32618e+10 6.07738e+10 5.84598e+10 5.18206e+10 4.40066e+10 4.06751e+10 2.85166e+10 2.75464e+10 2.67765e+10 2.54322e+10 2.44651e+10 2.02415e+10 1.68426e+10 1.67459e+10 1.57963e+10 1.55118e+10 1.47496e+10 1.22869e+10 1.19927e+10
threshold=2.5000000000000004 1411.5000000000002 2661.0000000000005 1671.5000000000002 1.5000000000000002 1050.5000000000002 1040.5000000000002 1993.5000000000002 1275.5000000000002 1966.0000000000002 1983.5000000000002 1642.5000000000002 1983.5000000000002 1958.5000000000002 781.50000000000011 1979.5000000000002 1200.5000000000002 1751.0000000000002 2261.0000000000005 222.50000000000003 1777.5000000000002 1976.5000000000002 685.00000000000011 1994.5000000000002 911.00000000000011 1201.5000000000002 686.50000000000011 811.00000000000011 1484.5000000000002 359.00000000000006
decision_type=2 2 2 2 2 2 2 2 2 2 2 2 10 10 2 2 2 2 2 2 2 2 2 2 2 2 2 2 2 2
left_child=1 5 3 7 19 13 14 -2 -5 28 20 23 -7 22 -6 -16 18 -17 -13 -3 -8 29 -1 -12 -24 -14 -21 -25 -9 -15
right_child=2 4 -4 8 6 12 10 9 -10 -11 11 16 25 21 15 17 -18 -19 -20 26 -22 -23 24 27 -26 -27 -28 -29 -30 -31
leaf_value=-979.80444561298077 -85.735182291666661 -438.93164776702429 2674.4509384765629 1224.4503842163085 -117.97872887138848 -330.9453877889303 -41.79407208397275 370.93912695312503 2130.9988187499998 1221.3772285156251 67.299315665108821 512.13492219002012 -224.88892624627977 -693.21006487165187 -143.44224818638392 68.665313986073372 1110.8028228469122 390.10114951313409 931.18503534226181 -297.21703674316404 371.88195822010874 -385.26418076128999 -827.10149113581735 274.29867151596966 -609.32344398082387 91.803649088541661 74.935953441801516 616.54057128906254 695.46325892857146 -499.80422342122398
leaf_weight=26 21 67 20 32 111 133 42 20 25 40 21 62 21 56 35 46 21 69 21 24 23 121 52 34 110 63 21 20 28 75
leaf_count=26 21 67 20 32 111 133 42 20 25 40 21 62 21 56 35 46 21 69 21 24 23 121 52 34 110 63 21 20 28 75
internal_value=0 -172.6 1182.22 1002.43 132.081 -458.731 230.617 678.407 1622.06 860.76 428.288 545.834 -197.948 -587.345 45.8217 167.034 717.636 261.527 618.16 -312.214 104.584 -487.786 -720.797 307.603 -679.228 12.6305 -123.546 401.055 560.245 -582.482
internal_weight=0 1274 186 166 617 657 505 109 57 88 244 179 217 440 261 150 104 115 83 112 65 252 188 75 162 84 45 54 48 131
internal_count=1460 1274 186 166 617 657 505 109 57 88 244 179 217 440 261 150 104 115 83 112 65 252 188 75 162 84 45 54 48 131
is_linear=0
shrinkage=0.01


Tree=7
num_leaves=31
num_cat=0
split_feature=1 0 2 1 0 2 2 3 4 3 5 0 7 9 4 5 8 1 0 0 5 0 8 2 3 9 5 0 6 0
split_gain=2.91987e+12 1.08856e+12 4.89853e+11 2.64743e+11 2.48362e+11 2.16282e+11 1.80799e+11 1.34792e+11 9.09951e+10 7.67531e+10 7.39055e+10 7.18039e+10 6.11714e+10 5.07894e+10 4.31309e+10 3.98657e+10 3.96961e+10 3.33202e+10 2.79491e+10 2.69982e+10 2.62437e+10 2.49261e+10 2.24945e+10 1.91979e+10 1.65074e+10 1.52031e+10 1.44561e+10 1.31644e+10 1.08965e+10 9.80466e+09
threshold=2.5000000000000004 1411.5000000000002 1844.5000000000002 1.5000000000000002 2293.0000000000005 1149.5000000000002 1040.5000000000002 1998.5000000000002 1983.5000000000002 1950.5000000000002 764.00000000000011 1642.5000000000002 1371.0000000000002 781.50000000000011 1979.5000000000002 1200.5000000000002 1978.5000000000002 1.5000000000000002 1751.0000000000002 2261.0000000000005 222.50000000000003 1777.5000000000002 1920.5000000000002 646.00000000000011 1994.5000000000002 686.50000000000011 811.00000000000011 1131.5000000000002 1.0000000180025095e-35 1072.5000000000002
decision_type=2 2 2 2 2 2 2 2 2 2 2 2 2 2 2 2 8 2 2 2 2 2 10 2 2 2 2 2 2 2
left_child=1 5 4 20 7 9 13 -2 21 22 -9 24 -6 28 -15 19 -7 23 -16 -13 -3 -8 -1 -11 -10 -22 -26 -24 -5 -19
right_child=2 3 -4 6 12 16 8 10 11 17 -12 15 -14 14 18 -17 -18 29 -20 -21 25 -23 27 -25 26 -27 -28 -29 -30 -31
leaf_value=-900.7056589673914 -84.826681396484389 -434.54232262454821 2200.2343546769425 -265.90218520220589 1203.9652309782609 -275.19042057291665 -41.376136147635329 577.85305234375005 66.626320408412383 -762.76701339285717 1172.0786892361111 507.01357256489416 1960.1526562500001 -142.00782631138392 67.97865786345109 1099.6948111979168 76.506524958956078 -428.71751534356008 386.20013664798461 921.87320312500003 -294.24487915039066 368.16313688858696 -727.87047192382818 -500.73182154374155 271.55568928438078 74.186592258271716 610.37515625000003 -528.99602967379394 -50.96115033236417 -277.06466106650271
leaf_weight=46 20 67 37 34 23 60 42 50 21 35 36 62 20 35 46 21 69 90 69 21 24 23 80 139 34 21 20 57 77 81
leaf_count=46 20 67 37 34 23 60 42 50 21 35 36 62 20 35 46 21 69 90 69 21 24 23 80 139 34 21 20 57 77 81
internal_value=0 -170.874 1170.4 130.76 914.666 -454.144 228.311 654.632 424.005 -543.826 826.599 540.376 1555.68 45.3635 165.364 710.459 -87.0734 -456.016 258.912 611.978 -309.092 103.538 -709.371 -553.44 304.527 -122.31 397.044 -645.127 -116.799 -356.882
internal_weight=0 1274 186 617 149 657 505 106 244 528 86 179 43 261 150 104 129 345 115 83 112 65 183 174 75 45 54 137 111 171
internal_count=1460 1274 186 617 149 657 505 106 244 528 86 179 43 261 150 104 129 345 115 83 112 65 183 174 75 45 54 137 111 171
is_linear=0
shrinkage=0.01


Tree=8
num_leaves=31
num_cat=0
split_feature=1 0 0 5 2 2 4 3 9 0 0 3 0 8 0 8 1 4 0 6 4 2 7 6 0 5 0 0 5 0
split_gain=2.86176e+12 1.06689e+12 4.83479e+11 3.21054e+11 2.59583e+11 2.1211e+11 1.89109e+11 1.2839e+11 9.82113e+10 8.65573e+10 8.60029e+10 7.51412e+10 7.31853e+10 5.83345e+10 5.65672e+10 5.63666e+10 3.24955e+10 2.99536e+10 3.72656e+10 2.62211e+10 2.38529e+10 2.10869e+10 1.9663e+10 1.90294e+10 1.70786e+10 1.82202e+10 1.6241e+10 1.51807e+10 1.34352e+10 1.19373e+10
threshold=2.5000000000000004 1411.5000000000002 2661.0000000000005 1162.5000000000002 1050.5000000000002 1050.5000000000002 1992.5000000000002 1982.5000000000002 768.50000000000011 1970.5000000000002 1800.5000000000002 1919.5000000000002 1919.5000000000002 1983.5000000000002 1642.5000000000002 1958.5000000000002 1.5000000000000002 1979.5000000000002 1928.5000000000002 1.5000000000000002 1976.5000000000002 1618.5000000000002 685.00000000000011 1.0000000180025095e-35 2091.5000000000005 930.50000000000011 911.00000000000011 1201.5000000000002 811.00000000000011 1660.5000000000002
decision_type=2 2 2 2 2 2 2 2 2 2 2 2 2 10 2 10 2 2 2 2 2 2 2 2 2 2 2 2 2 2
left_child=1 5 3 6 8 15 -2 10 16 21 23 -10 -5 -7 28 22 -3 -13 29 -12 -17 -8 -1 -6 25 -16 -24 -15 -9 -19
right_child=2 4 -4 12 7 13 9 14 11 -11 19 17 -14 27 24 20 -18 18 -20 -21 -22 -23 26 -25 -26 -27 -28 -29 -30 -31
leaf_value=-962.10664813701919 -171.50441845703125 -416.57896164910272 2627.522666015625 1267.2631464843751 -331.89105561755957 -324.04844605410011 486.71508705357144 240.73694845581056 -392.1245052278959 1233.1827770712209 248.7749578857422 -53.994436348157052 2086.3268033854165 -220.28353771391369 506.24071289062499 -571.52862405325618 -122.77135971527834 -16.518148367745535 539.9199341517857 704.46333623471469 -376.79433347087257 871.56583007812503 -811.48300631009613 21.092251434326172 983.94133152173924 880.08146417791204 -597.01345001775564 90.176673525855662 548.40114679509941 234.21211082329185
leaf_weight=26 20 59 20 20 21 133 35 40 26 43 28 39 24 21 32 131 104 28 35 23 121 24 52 56 23 22 110 63 22 59
leaf_count=26 20 59 20 20 21 133 35 40 26 43 28 39 24 21 32 131 104 28 35 23 121 24 52 56 23 22 110 63 22 59
internal_value=0 -169.166 1158.69 981.726 129.452 -449.603 717.618 364.293 -49.6977 891.956 135.78 106.696 1714.03 -193.748 574.723 -575.786 -229.119 187.251 264.371 454.281 -478.025 643.265 -706.826 -75.1759 755.742 658.546 -665.856 12.5616 349.908 153.517
internal_weight=0 1274 186 166 617 657 122 267 350 102 128 187 44 217 139 440 163 161 122 51 252 59 188 77 77 54 162 84 62 87
internal_count=1460 1274 186 166 617 657 122 267 350 102 128 187 44 217 139 440 163 161 122 51 252 59 188 77 77 54 162 84 62 87
is_linear=0
shrinkage=0.01


Tree=9
num_leaves=31
num_cat=0
split_feature=1 0 5 4 1 2 0 2 7 4 3 0 9 7 4 5 8 1 0 0 5 0 8 2 3 9 5 0 6 2
split_gain=2.80481e+12 1.04566e+12 4.75108e+11 2.69442e+11 2.54881e+11 2.08161e+11 1.94898e+11 1.73845e+11 9.18737e+10 8.75658e+10 7.42435e+10 6.90762e+10 4.87999e+10 4.85479e+10 4.15459e+10 3.86365e+10 3.80622e+10 3.23124e+10 2.69427e+10 2.61954e+10 2.54249e+10 2.38431e+10 2.17351e+10 1.86651e+10 1.59449e+10 1.47339e+10 1.39097e+10 1.27981e+10 1.06693e+10 9.62085e+09
threshold=2.5000000000000004 1411.5000000000002 1311.5000000000002 1992.5000000000002 1.5000000000000002 1149.5000000000002 1970.5000000000002 1040.5000000000002 1422.5000000000002 1983.5000000000002 1950.5000000000002 1642.5000000000002 781.50000000000011 1689.5000000000002 1979.5000000000002 1200.5000000000002 1978.5000000000002 1.5000000000000002 1751.0000000000002 2261.0000000000005 222.50000000000003 1777.5000000000002 1920.5000000000002 646.00000000000011 1994.5000000000002 686.50000000000011 811.00000000000011 1131.5000000000002 1.0000000180025095e-35 786.00000000000011
decision_type=2 2 2 2 2 2 2 2 2 2 2 2 2 2 2 2 8 2 2 2 2 2 10 2 2 2 2 2 2 2
left_child=1 5 3 -2 20 10 13 12 -8 21 22 24 28 -5 -14 19 -7 23 -16 -13 -3 -9 -1 -12 -11 -22 -26 29 -6 -24
right_child=2 4 -4 6 7 16 8 9 -10 11 17 15 14 -15 18 -17 -18 -19 -20 -21 25 -23 27 -25 26 -27 -28 -29 -30 -31
leaf_value=-883.98226732336957 -169.78938598632814 -426.90146545865645 2235.3561286695076 550.52270722656249 -262.01544255873739 -269.19803159586587 1156.5190725446428 -40.332854970296225 1941.2844591346154 64.787466416131878 -749.06780580357145 496.40369987241684 -139.56475662667413 1114.2321626420455 66.455575588060469 1079.9348165457591 75.184727915888246 -349.10301450852063 378.89485995527627 905.04859375000001 -288.83906209309896 360.21048403532609 -813.5327281605114 -490.69376885503323 266.4327641745175 73.862257268996458 598.78741308593749 -518.25076583059217 -49.32702745264227 -593.10096652560765
leaf_weight=46 20 67 33 50 34 60 35 42 26 21 35 62 35 22 46 21 69 171 69 21 24 23 44 139 34 21 20 57 77 36
leaf_count=46 20 67 33 50 34 60 35 42 26 21 35 62 35 22 46 21 69 171 69 21 24 23 44 139 34 21 20 57 77 36
internal_value=0 -167.474 1147.11 912.386 128.158 -445.107 1075.12 223.875 1491.01 415.769 -533.089 529.926 44.4798 722.767 162.106 696.747 -84.9933 -446.726 253.919 599.796 -303.423 101.398 -695.905 -542.666 298.6 -119.578 389.527 -632.755 -114.475 -714.338
internal_weight=0 1274 186 153 617 657 133 505 61 244 528 179 261 72 150 104 129 345 115 83 112 65 183 174 75 45 54 137 111 80
internal_count=1460 1274 186 153 617 657 133 505 61 244 528 179 261 72 150 104 129 345 115 83 112 65 183 174 75 45 54 137 111 80
is_linear=0
shrinkage=0.01


Tree=10
num_leaves=31
num_cat=0
split_feature=1 0 0 2 3 2 6 0 2 0 5 4 0 8 8 5 0 4 4 0 5 7 1 0 0 5 5 5 5 6
split_gain=2.749e+12 1.02485e+12 4.68188e+11 3.1067e+11 2.50064e+11 2.04279e+11 1.48729e+11 1.4146e+11 1.40239e+11 1.16395e+11 1.0763e+11 6.49063e+10 5.94126e+10 5.60192e+10 5.42947e+10 4.22908e+10 3.89078e+10 2.35092e+10 2.32491e+10 1.99059e+10 2.12564e+10 1.90534e+10 1.83638e+10 1.57399e+10 1.45497e+10 1.30903e+10 1.28016e+10 1.14609e+10 1.12163e+10 9.90443e+09
threshold=2.5000000000000004 1411.5000000000002 2661.0000000000005 1671.5000000000002 1979.5000000000002 1050.5000000000002 1.0000000180025095e-35 2035.5000000000002 1025.0000000000002 2035.5000000000002 1275.5000000000002 2002.5000000000002 1642.5000000000002 1983.5000000000002 1958.5000000000002 1108.0000000000002 1763.0000000000002 1993.5000000000002 1976.5000000000002 2241.5000000000005 930.50000000000011 685.00000000000011 1.5000000000000002 911.00000000000011 1201.5000000000002 713.50000000000011 787.50000000000011 359.00000000000006 181.00000000000003 1.0000000180025095e-35
decision_type=2 2 2 2 2 2 2 2 2 2 2 2 2 10 10 2 2 2 2 2 2 2 2 2 2 2 2 2 2 2
left_child=1 5 3 7 6 14 28 11 16 15 -5 -2 26 29 21 22 -6 -11 27 20 -14 -1 -8 -23 -15 -9 -10 -16 -3 -7
right_child=2 4 -4 10 8 13 9 25 12 17 -12 -13 19 24 18 -17 -18 -19 -20 -21 -22 23 -24 -25 -26 -27 -28 -29 -30 -31
leaf_value=-944.38911658653842 -109.12714378720239 -470.72354323323572 2581.05067578125 1175.6411630249024 6.4377887136629317 -401.62736709594725 -291.88537811957468 911.46644276494567 216.68918804931641 306.21722530691966 2051.347990625 569.12242187499999 486.582039964464 -215.34883963448661 -669.09857910156256 355.3241973586309 336.98881494140625 723.38517116199841 -368.59916295831857 1006.7552939453125 861.81693547175485 -796.12981445312505 -43.538045432350856 -584.99452254971595 88.590406145368306 1252.6635600142047 505.15156992187497 -480.02929775390629 -259.11467906863192 -228.99210922475962
leaf_weight=26 21 60 20 32 101 68 45 23 40 35 25 43 36 21 56 21 55 22 121 20 26 52 88 110 63 22 25 75 43 65
leaf_count=26 21 60 20 32 101 68 45 23 40 35 25 43 36 21 56 21 55 22 121 20 26 52 88 110 63 22 25 75 43 65
internal_value=0 -165.799 1135.64 961.489 126.876 -440.656 -70.8842 648.651 331.816 81.1739 1559.72 346.572 553.44 -189.568 -564.487 -61.7168 122.978 467.229 -468.541 732.43 643.939 -693.097 -127.565 -652.766 12.6056 1078.27 327.636 -560.853 -382.382 -317.257
internal_weight=0 1274 186 166 617 657 314 109 303 211 57 64 147 217 440 154 156 57 252 82 62 188 133 162 84 45 65 131 103 133
internal_count=1460 1274 186 166 617 657 314 109 303 211 57 64 147 217 440 154 156 57 252 82 62 188 133 162 84 45 65 131 103 133
is_linear=0
shrinkage=0.01


Tree=11
num_leaves=31
num_cat=0
split_feature=1 0 2 1 0 2 2 3 4 3 5 0 7 9 4 5 8 1 0 0 5 0 0 2 3 9 5 2 0 6
split_gain=2.69429e+12 1.00446e+12 4.60251e+11 2.45259e+11 2.30505e+11 2.00244e+11 1.67338e+11 1.26001e+11 8.41589e+10 7.17905e+10 6.895e+10 6.64846e+10 5.5846e+10 4.72971e+10 4.02121e+10 3.7535e+10 3.65364e+10 3.12898e+10 2.61904e+10 2.52151e+10 2.46293e+10 2.31235e+10 2.11155e+10 1.80961e+10 1.54662e+10 1.43241e+10 1.34089e+10 1.31912e+10 1.04999e+10 1.02364e+10
threshold=2.5000000000000004 1411.5000000000002 1844.5000000000002 1.5000000000000002 2293.0000000000005 1149.5000000000002 1040.5000000000002 1998.5000000000002 1983.5000000000002 1950.5000000000002 764.00000000000011 1642.5000000000002 1371.0000000000002 781.50000000000011 1979.5000000000002 1200.5000000000002 1978.5000000000002 1.5000000000000002 1928.5000000000002 2261.0000000000005 222.50000000000003 1777.5000000000002 1097.5000000000002 646.00000000000011 1994.5000000000002 686.50000000000011 811.00000000000011 810.50000000000011 1656.5000000000002 1.0000000180025095e-35
decision_type=2 2 2 2 2 2 2 2 2 2 2 2 2 2 2 2 8 2 2 2 2 2 2 2 2 2 2 2 2 2
left_child=1 5 4 20 7 9 13 -2 21 22 -9 24 -6 29 -15 19 -7 23 28 -13 -3 -8 27 -11 -10 -22 -26 -1 -16 -5
right_child=2 3 -4 6 12 16 8 10 11 17 -12 15 -14 14 18 -17 -18 -19 -20 -21 25 -23 -24 -25 26 -27 -28 -29 -30 -31
leaf_value=-869.1601376488095 -89.055166992187495 -419.27994850272563 2122.5142498944256 -257.50952501388156 1157.8795703124999 -263.52559261067711 -40.001490064348495 551.88585546875004 62.461890578497027 -735.25846875000002 1125.8439797634549 486.34646524736957 1880.4020156250001 -137.49288546316964 -28.950184909986415 1061.0306805710566 73.884292854640805 -341.55177563048244 482.55306597541363 887.2724051339286 -283.69404439290366 354.45085937499999 -567.30568589154416 -480.85358138050105 261.43186171587774 73.928848310198106 587.74801757812497 -627.02892327008931 223.54704845560011 -49.18065118963068
leaf_weight=63 20 67 37 34 23 60 42 50 21 35 36 62 20 35 23 21 69 171 34 21 24 23 85 139 34 21 20 35 58 77
leaf_count=63 20 67 37 34 23 60 42 50 21 35 36 62 20 35 23 21 69 171 34 21 24 23 85 139 34 21 20 35 58 77
internal_value=0 -164.141 1124.28 125.607 876.395 -436.249 219.5 625.883 407.768 -522.542 792.147 519.683 1493.94 43.495 159.296 683.345 -83.0505 -437.618 249.623 587.786 -297.749 99.574 -682.645 -532.027 292.738 -116.803 382.29 -782.685 151.85 -112.993
internal_weight=0 1274 186 617 149 657 505 106 244 528 86 179 43 261 150 104 129 345 115 83 112 65 183 174 75 45 54 98 81 111
internal_count=1460 1274 186 617 149 657 505 106 244 528 86 179 43 261 150 104 129 345 115 83 112 65 183 174 75 45 54 98 81 111
is_linear=0
shrinkage=0.01


Tree=12
num_leaves=31
num_cat=0
split_feature=1 0 0 5 3 2 4 6 2 0 0 0 0 8 8 5 0 3 5 4 2 0 5 1 0 5 3 5 0 2
split_gain=2.64067e+12 9.8447e+11 4.53647e+11 2.99196e+11 2.40906e+11 1.96734e+11 1.77089e+11 1.44196e+11 1.34812e+11 1.12791e+11 8.00464e+10 6.82305e+10 5.72579e+10 5.37997e+10 5.26176e+10 4.09548e+10 3.73741e+10 3.3994e+10 2.66107e+10 2.27519e+10 1.96572e+10 1.92011e+10 2.04799e+10 1.75788e+10 1.39427e+10 1.23038e+10 1.16146e+10 1.07653e+10 1.06345e+10 1.09166e+10
threshold=2.5000000000000004 1411.5000000000002 2661.0000000000005 1162.5000000000002 1979.5000000000002 1050.5000000000002 1992.5000000000002 1.0000000180025095e-35 1025.0000000000002 2035.5000000000002 1970.5000000000002 1919.5000000000002 1642.5000000000002 1983.5000000000002 1920.5000000000002 1108.0000000000002 1763.0000000000002 1976.5000000000002 368.50000000000006 1993.5000000000002 1618.5000000000002 2241.5000000000005 930.50000000000011 1.5000000000000002 1201.5000000000002 787.50000000000011 2003.5000000000002 181.00000000000003 1131.5000000000002 786.00000000000011
decision_type=2 2 2 2 2 2 2 2 2 2 2 2 2 10 10 2 2 2 2 2 2 2 2 2 2 2 2 2 2 2
left_child=1 5 3 6 7 14 -2 27 16 15 20 -5 25 -7 -1 23 -6 18 28 -11 -8 22 -14 -9 -15 -10 -12 -3 29 -16
right_child=2 4 -4 11 8 13 10 9 12 19 26 -13 21 24 17 -17 -18 -19 -20 -21 -22 -23 -24 -25 -26 -27 -28 -29 -30 -31
leaf_value=-816.07262139423085 -173.74560913085938 -463.01547399902347 2535.8289638671877 1217.1738374023439 6.5257393744440364 -310.61315797963539 465.05802901785711 -286.26144051106769 212.35715197753908 301.60226339285714 1022.93458984375 2008.0255208333335 477.14516778733997 -210.50036283947171 -786.00145052083337 349.70924014136909 330.49618832120035 -307.37859930508375 -450.87763934457899 711.99657982566146 836.63384114583334 987.93628710937503 845.46187265249409 -43.279831041856241 87.031597532242074 495.15495664062502 1351.721447172619 -255.70478217546329 -524.29616867897732 -588.04262207031252
leaf_weight=65 20 60 20 20 101 133 35 45 40 35 22 24 36 21 60 21 55 69 139 22 24 20 26 88 63 25 21 43 55 52
leaf_count=65 20 60 20 20 101 133 35 45 40 35 22 24 36 21 60 21 55 69 139 22 24 20 26 88 63 25 21 43 55 52
internal_value=0 -162.5 1113.04 941.615 124.351 -431.887 686.656 -69.7539 325.503 79.9692 855.362 1648.55 542.797 -185.48 -553.41 -60.6915 120.746 -507.882 -553.093 460 616.208 718.512 631.601 -125.492 12.6486 321.126 1183.5 -376.468 -638.171 -694.092
internal_weight=0 1274 186 166 617 657 122 314 303 211 102 44 147 217 440 154 156 375 306 57 59 82 62 133 84 65 43 103 167 112
internal_count=1460 1274 186 166 617 657 122 314 303 211 102 44 147 217 440 154 156 375 306 57 59 82 62 133 84 65 43 103 167 112
is_linear=0
shrinkage=0.01


Tree=13
num_leaves=31
num_cat=0
split_feature=1 0 2 3 0 0 2 6 2 0 3 0 7 8 8 5 0 3 5 5 4 0 5 1 0 5 5 0 2 6
split_gain=2.58812e+12 9.64879e+11 4.46822e+11 2.36112e+11 2.31825e+11 2.12515e+11 1.92819e+11 1.41326e+11 1.32129e+11 1.10546e+11 1.09057e+11 5.61185e+10 5.28733e+10 5.27291e+10 5.15705e+10 4.01398e+10 3.66303e+10 3.33175e+10 2.60811e+10 2.53364e+10 2.22992e+10 1.8819e+10 2.00723e+10 1.7229e+10 1.36653e+10 1.20589e+10 1.05511e+10 1.04229e+10 1.06993e+10 9.67306e+09
threshold=2.5000000000000004 1411.5000000000002 1716.0000000000002 1979.5000000000002 2061.0000000000005 2140.0000000000005 1050.5000000000002 1.0000000180025095e-35 1025.0000000000002 2035.5000000000002 2001.5000000000002 1642.5000000000002 1393.0000000000002 1983.5000000000002 1920.5000000000002 1108.0000000000002 1763.0000000000002 1976.5000000000002 368.50000000000006 764.00000000000011 1993.5000000000002 2241.5000000000005 930.50000000000011 1.5000000000000002 1201.5000000000002 787.50000000000011 181.00000000000003 1131.5000000000002 786.00000000000011 1.0000000180025095e-35
decision_type=2 2 2 2 2 2 2 2 2 2 2 2 2 10 10 2 2 2 2 2 2 2 2 2 2 2 2 2 2 2
left_child=1 6 5 7 -4 10 14 26 16 15 -2 25 -7 29 -1 23 -5 18 27 -12 -11 22 -13 -9 -15 -10 -3 28 -16 -8
right_child=2 3 4 8 -6 12 13 9 11 20 19 21 -14 24 17 -17 -18 -19 -20 -21 -22 -23 -24 -25 -26 -27 -28 -29 -30 -31
leaf_value=-807.91189663461546 -174.57638525390627 -458.38531783040366 1324.9343041992188 6.4604824179469951 2658.4279678622161 1034.0079901123047 -390.88633820253256 -283.39882069227434 210.23358114624025 298.58623618861606 527.3018752504006 472.37371398925779 1689.4434375000001 -208.39536202566964 -778.14144075520835 346.21214936755956 327.19122998046873 -304.3048202912704 -446.36886436846618 958.13246047247026 704.87661998401995 978.05692578125002 837.00724750225356 -42.847033452120698 86.161283113994301 490.2034013671875 -253.14773712867915 -519.05320649857958 -582.16219764122593 -220.27944561298079
leaf_weight=65 20 60 32 101 22 32 68 45 40 35 39 36 20 21 60 21 55 69 139 21 22 20 26 88 63 25 43 55 52 65
leaf_count=65 20 60 32 101 22 32 68 45 40 35 39 36 20 21 60 21 55 69 139 21 22 20 26 88 63 25 43 55 52 65
internal_value=0 -160.875 1101.91 123.108 1868.21 788.418 -427.568 -69.0564 322.248 79.1695 464.925 537.369 1286.1 -183.625 -547.876 -60.0846 119.539 -502.803 -547.562 678.093 455.4 711.327 625.285 -124.237 12.5221 317.914 -372.704 -631.79 -687.151 -307.507
internal_weight=0 1274 186 617 54 132 657 314 303 211 80 147 52 217 440 154 156 375 306 60 57 82 62 133 84 65 103 167 112 133
internal_count=1460 1274 186 617 54 132 657 314 303 211 80 147 52 217 440 154 156 375 306 60 57 82 62 133 84 65 103 167 112 133
is_linear=0
shrinkage=0.01


Tree=14
num_leaves=31
num_cat=0
split_feature=1 0 5 4 2 2 0 3 9 7 0 3 3 0 7 8 1 1 4 0 6 8 2 6 0 5 0 5 0 2
split_gain=2.53662e+12 9.45678e+11 4.39436e+11 2.48847e+11 2.31761e+11 1.8916e+11 1.77377e+11 1.13799e+11 8.95127e+10 8.30625e+10 7.80065e+10 6.89868e+10 6.83756e+10 5.03278e+10 4.40229e+10 3.43105e+10 3.28795e+10 2.91548e+10 2.67453e+10 3.4363e+10 2.51333e+10 2.33962e+10 1.73132e+10 1.70904e+10 1.52134e+10 1.62951e+10 1.21946e+10 1.19595e+10 1.08239e+10 1.0515e+10
threshold=2.5000000000000004 1411.5000000000002 1311.5000000000002 1992.5000000000002 1050.5000000000002 1149.5000000000002 1970.5000000000002 1982.5000000000002 768.50000000000011 1422.5000000000002 1800.5000000000002 1919.5000000000002 1954.5000000000002 1642.5000000000002 1689.5000000000002 1978.5000000000002 1.5000000000000002 1.5000000000000002 1979.5000000000002 1928.5000000000002 1.5000000000000002 1920.5000000000002 646.00000000000011 1.0000000180025095e-35 2091.5000000000005 951.00000000000011 1053.5000000000002 811.00000000000011 1660.5000000000002 786.00000000000011
decision_type=2 2 2 2 2 2 2 2 2 2 2 2 2 2 2 8 2 2 2 2 2 10 2 2 2 2 2 2 2 2
left_child=1 5 3 -2 8 12 14 10 17 -8 23 -10 21 27 -5 -7 22 -3 -13 28 -12 -1 -14 -6 25 -15 29 -9 -20 -23
right_child=2 4 -4 6 7 15 9 13 11 -11 20 18 16 24 -16 -17 -18 -19 19 -21 -22 26 -24 -25 -26 -27 -28 -29 -30 -31
leaf_value=-842.515583444149 -174.84582202148439 -396.25490229202529 2137.4855965909092 521.37804374999996 -315.55549758184526 -254.89897857666017 1100.250109375 226.83343884277343 -376.04988778921273 1846.4356670673078 230.77351283482142 -48.86785682091346 -719.15947798295463 482.32320072058474 1058.1740110085227 72.071381128283505 -311.09471085663813 -117.95922438254723 -16.395763985770088 516.56558377511158 676.90940387228261 -797.62285757211532 -461.64317863281252 18.960755677904402 928.01090523097821 838.65857584635421 -511.02214203559032 517.1096761807529 222.35558043399098 -562.2924353357264
leaf_weight=47 20 59 33 50 21 60 35 40 26 26 28 39 33 33 22 69 157 104 28 35 23 39 125 56 23 21 90 22 59 37
leaf_count=47 20 59 33 50 21 60 35 40 26 26 28 39 33 33 22 69 157 104 28 35 23 39 125 56 23 21 90 22 59 37
internal_value=0 -159.266 1090.89 865.15 121.877 -423.292 1021.54 343.776 -47.4007 1418.3 128.638 101.907 -507.163 541.888 685.399 -80.0079 -413.586 -218.692 179.092 251.965 431.972 -645.551 -515.428 -72.2709 712.633 620.898 -589.784 329.835 145.516 -683.054
internal_weight=0 1274 186 153 617 657 133 267 350 61 128 187 528 139 72 129 315 163 161 122 51 213 158 77 77 54 166 62 87 76
internal_count=1460 1274 186 153 617 657 133 267 350 61 128 187 528 139 72 129 315 163 161 122 51 213 158 77 77 54 166 62 87 76
is_linear=0
shrinkage=0.01


Tree=15
num_leaves=31
num_cat=0
split_feature=1 0 0 2 1 2 2 4 5 0 4 0 8 8 9 5 4 0 3 5 0 5 0 5 9 0 3 2 0 2
split_gain=2.48614e+12 9.26859e+11 4.3317e+11 2.83959e+11 2.27579e+11 1.85635e+11 1.55203e+11 1.30291e+11 9.94841e+10 8.05014e+10 7.8e+10 5.65873e+10 5.06488e+10 4.96618e+10 4.44418e+10 4.22292e+10 3.77828e+10 3.56777e+10 3.21609e+10 2.52188e+10 2.46635e+10 2.33118e+10 2.14944e+10 1.45702e+10 1.36616e+10 1.31017e+10 1.19959e+10 1.12431e+10 1.00777e+10 1.02293e+10
threshold=2.5000000000000004 1411.5000000000002 2661.0000000000005 1671.5000000000002 1.5000000000000002 1050.5000000000002 1040.5000000000002 1993.5000000000002 1275.5000000000002 1966.0000000000002 1988.5000000000002 1642.5000000000002 1983.5000000000002 1920.5000000000002 781.50000000000011 1200.5000000000002 1979.5000000000002 2035.5000000000002 1976.5000000000002 368.50000000000006 1928.5000000000002 222.50000000000003 2091.5000000000005 787.50000000000011 686.50000000000011 1201.5000000000002 1974.5000000000002 1484.5000000000002 1131.5000000000002 786.00000000000011
decision_type=2 2 2 2 2 2 2 2 2 2 2 2 10 10 2 2 2 2 2 2 2 2 2 2 2 2 2 2 2 2
left_child=1 5 3 7 21 13 14 -2 -5 27 17 23 -7 -1 -6 22 -16 26 19 28 -18 -3 -13 -12 -23 -14 -8 -9 29 -15
right_child=2 4 -4 8 6 12 10 9 -10 -11 11 15 25 18 16 -17 20 -19 -20 -21 -22 24 -24 -25 -26 -27 -28 -29 -30 -31
leaf_value=-792.28322235576923 -94.360729864211322 -405.38962577250464 2470.2880859375 1115.147159423828 -110.0912310296136 -301.11749117743699 -119.02417135990027 325.08802050781253 1957.0643562500002 1113.599365234375 186.07022396353787 439.25566970189413 -203.778970249721 -763.07893847656248 -133.83353480747769 1083.3804394531251 146.52696836871866 487.19809314546131 -297.85168020054914 -437.34292650840268 467.44531005859375 -274.10031819661458 791.94404875578709 482.46143156828703 75.154307948521208 84.639773995535705 171.38072226562502 635.52258021763396 -508.81874218750005 -571.4531407752404
leaf_weight=65 21 67 20 32 111 133 33 20 25 40 43 48 21 60 35 20 81 21 69 139 34 24 27 27 21 63 25 28 55 52
leaf_count=65 21 67 20 32 111 133 33 20 25 40 43 48 21 60 35 20 81 21 69 139 34 24 27 27 21 63 25 28 55 52
internal_value=0 -157.673 1079.98 912.471 120.658 -419.059 211.103 613.383 1484.41 782.277 392.417 516.132 -179.704 -537.105 41.5997 675.099 153.851 134.024 -492.874 -536.85 241.407 -287.154 566.223 300.393 -111.115 12.5351 6.15035 506.175 -619.673 -674.11
internal_weight=0 1274 186 166 617 657 505 109 57 88 244 165 217 440 261 95 150 79 375 306 115 112 75 70 45 84 58 48 167 112
internal_count=1460 1274 186 166 617 657 505 109 57 88 244 165 217 440 261 95 150 79 375 306 115 112 75 70 45 84 58 48 167 112
is_linear=0
shrinkage=0.01


Tree=16
num_leaves=31
num_cat=0
split_feature=1 0 0 5 3 2 4 6 2 0 0 0 8 0 8 5 0 4 4 2 2 0 5 1 2 5 3 2 5 3
split_gain=2.43667e+12 9.08414e+11 4.2455e+11 2.7837e+11 2.23463e+11 1.82098e+11 1.65107e+11 1.35616e+11 1.24594e+11 1.0556e+11 7.42024e+10 6.38922e+10 5.47522e+10 5.30402e+10 4.07865e+10 3.82623e+10 3.4537e+10 3.02806e+10 2.14624e+10 2.04371e+10 1.80835e+10 1.79246e+10 1.89267e+10 1.62108e+10 1.17249e+10 1.13816e+10 1.11581e+10 1.046e+10 9.99665e+09 9.43094e+09
threshold=2.5000000000000004 1411.5000000000002 2661.0000000000005 1162.5000000000002 1979.5000000000002 1087.0000000000002 1992.5000000000002 1.0000000180025095e-35 1025.0000000000002 2035.5000000000002 1970.5000000000002 1919.5000000000002 1946.5000000000002 1642.5000000000002 1979.5000000000002 1108.0000000000002 1763.0000000000002 1973.5000000000002 1993.5000000000002 560.50000000000011 1618.5000000000002 2241.5000000000005 930.50000000000011 1.5000000000000002 683.50000000000011 787.50000000000011 2003.5000000000002 1240.5000000000002 181.00000000000003 1956.5000000000002
decision_type=2 2 2 2 2 2 2 2 2 2 2 2 10 2 10 2 2 2 2 2 2 2 2 2 2 2 2 2 2 2
left_child=1 5 3 6 7 12 -2 28 16 15 20 -5 24 25 -7 23 -6 19 -11 -14 -8 22 -15 -9 -1 -10 -12 -16 -3 -19
right_child=2 4 -4 11 8 14 10 9 13 18 26 -13 17 21 27 -17 -18 29 -20 -21 -22 -23 -24 -25 -26 -27 -28 -29 -30 -31
leaf_value=-822.70830118815115 -173.3632734375 -448.34480655924483 2445.5851679687498 1167.7961865234374 6.5403594770525944 -280.14608903249103 445.08668694196427 -275.39206414116757 204.11715747070315 291.50890597098214 978.87232066761374 1933.0924316406251 -793.23427734375002 458.74464580535891 -99.371853093327701 338.30958379836312 317.97182310901991 -484.44791249150819 690.10327276056455 -499.82244707156457 801.47867350260424 951.51523828125005 812.81949376032912 -42.057092844789679 -620.36968894421216 476.11043984374999 1301.1341982886906 128.75695035067471 -248.57212481831397 -318.0110201909888
leaf_weight=48 20 60 20 20 101 96 35 45 40 35 22 24 28 36 37 21 55 46 22 156 24 20 26 88 71 25 21 44 43 131
leaf_count=48 20 60 20 20 101 96 35 45 40 35 22 24 28 36 37 21 55 46 22 156 24 20 26 88 71 25 21 44 43 131
internal_value=0 -156.097 1069.18 903.346 119.451 -414.869 657.42 -67.4948 313.184 77.7058 820.319 1585.23 -515.965 522.081 -140.709 -58.3712 116.34 -454.645 445.352 -544.472 590.06 691.2 607.228 -121.005 -701.985 308.73 1136.26 24.55 -364.945 -361.266
internal_weight=0 1274 186 166 617 657 122 314 303 211 102 44 480 147 177 154 156 361 57 184 59 82 62 133 119 65 43 81 103 177
internal_count=1460 1274 186 166 617 657 122 314 303 211 102 44 480 147 177 154 156 361 57 184 59 82 62 133 119 65 43 81 103 177
is_linear=0
shrinkage=0.01


Tree=17
num_leaves=31
num_cat=0
split_feature=1 0 2 0 3 0 2 6 2 0 3 3 0 5 5 0 8 1 8 4 7 0 5 2 1 0 5 2 5 6
split_gain=2.38818e+12 8.90337e+11 4.19252e+11 2.21376e+11 2.19016e+11 1.96988e+11 1.78747e+11 1.32917e+11 1.22114e+11 1.03459e+11 1.00227e+11 6.49251e+10 5.19847e+10 3.75008e+10 3.62684e+10 3.38813e+10 3.22352e+10 3.13544e+10 2.22233e+10 2.10353e+10 1.97337e+10 1.75679e+10 1.855e+10 1.64138e+10 1.58882e+10 1.16613e+10 1.11674e+10 1.00065e+10 9.79772e+09 8.39053e+09
threshold=2.5000000000000004 1411.5000000000002 1716.0000000000002 2061.0000000000005 1979.5000000000002 2322.0000000000005 1149.5000000000002 1.0000000180025095e-35 1025.0000000000002 2035.5000000000002 1999.5000000000002 1954.5000000000002 1642.5000000000002 1108.0000000000002 764.00000000000011 1742.5000000000002 1978.5000000000002 1.5000000000000002 1920.5000000000002 1993.5000000000002 1349.5000000000002 2241.5000000000005 930.50000000000011 646.00000000000011 1.5000000000000002 1053.5000000000002 811.00000000000011 786.00000000000011 181.00000000000003 1.0000000180025095e-35
decision_type=2 2 2 2 2 2 2 2 2 2 2 2 2 2 2 2 8 2 10 2 2 2 2 2 2 2 2 2 2 2
left_child=1 6 5 -4 7 10 11 28 15 13 -2 18 26 24 -12 -6 29 23 -1 -11 -7 22 -14 -13 -9 27 -10 -20 -3 -8
right_child=2 4 3 -5 8 20 16 9 12 19 14 17 21 -15 -16 -17 -18 -19 25 -21 -22 -23 -24 -25 -26 -27 -28 -29 -30 -31
leaf_value=-819.06454537898946 -110.3901869419643 -443.86136092122399 1269.8817193603516 2572.9770703125 0.24009512950464623 1116.2450306919643 -391.36939819335936 -272.63813456895616 208.64562846592494 288.5938162667411 502.32173140092334 -698.88566524621217 454.15719657050244 334.92648251488095 973.4078399188702 304.13978094585872 70.39026680324389 -300.97841160865346 -775.72169170673078 683.20223244406964 1555.150970703125 942.00008789062497 804.69131236149713 -448.14709052734378 -41.636522208181297 -495.72915407986113 482.76767026154891 -546.1515292440879 -246.0864007142533 -149.9826575893826
leaf_weight=47 21 60 32 22 97 21 24 45 42 35 44 33 36 21 26 59 69 157 39 22 20 20 26 125 88 90 23 37 43 36
leaf_count=47 21 60 32 22 97 21 24 45 42 35 44 33 36 21 26 59 69 157 39 22 20 20 26 125 88 90 23 37 43 36
internal_value=0 -154.536 1058.49 1800.77 118.257 754.824 -410.72 -66.8199 310.053 76.9287 495.523 -492.249 516.86 -57.7875 677.297 115.177 -77.0179 -401.064 -627.101 440.899 1330.35 684.288 601.155 -500.517 -119.795 -572.749 305.643 -663.957 -361.295 -246.537
internal_weight=0 1274 186 54 617 132 657 314 303 211 91 528 147 154 70 156 129 315 213 57 41 82 62 158 133 166 65 76 103 60
internal_count=1460 1274 186 54 617 132 657 314 303 211 91 528 147 154 70 156 129 315 213 57 41 82 62 158 133 166 65 76 103 60
is_linear=0
shrinkage=0.01


Tree=18
num_leaves=31
num_cat=0
split_feature=1 0 5 4 1 2 0 2 7 4 0 8 8 9 5 7 4 0 3 5 0 5 0 5 9 0 4 0 2 0
split_gain=2.34065e+12 8.72619e+11 4.11248e+11 2.31702e+11 2.14987e+11 1.75358e+11 1.64609e+11 1.46723e+11 7.69638e+10 7.37941e+10 5.34557e+10 4.76486e+10 4.70881e+10 4.26166e+10 4.07864e+10 4.06606e+10 3.6124e+10 3.42819e+10 3.04884e+10 2.41371e+10 2.36708e+10 2.23238e+10 2.02801e+10 1.37482e+10 1.31773e+10 1.23841e+10 1.13315e+10 9.66289e+09 9.6074e+09 9.54572e+09
threshold=2.5000000000000004 1411.5000000000002 1311.5000000000002 1992.5000000000002 1.5000000000000002 1050.5000000000002 1970.5000000000002 1040.5000000000002 1422.5000000000002 1988.5000000000002 1642.5000000000002 1983.5000000000002 1920.5000000000002 781.50000000000011 1200.5000000000002 1689.5000000000002 1979.5000000000002 2035.5000000000002 1976.5000000000002 368.50000000000006 1928.5000000000002 222.50000000000003 2091.5000000000005 787.50000000000011 686.50000000000011 1201.5000000000002 1974.5000000000002 1131.5000000000002 786.00000000000011 1656.5000000000002
decision_type=2 2 2 2 2 2 2 2 2 2 2 10 10 2 2 2 2 2 2 2 2 2 2 2 2 2 2 2 2 2
left_child=1 5 3 -2 21 12 15 13 -8 17 23 -7 -1 -6 22 -5 -15 26 19 27 29 -3 -12 -11 -23 -13 -9 28 -14 -18
right_child=2 4 -4 6 7 11 8 9 -10 10 14 25 18 16 -16 -17 20 -19 -20 -21 -22 24 -24 -25 -26 -27 -28 -29 -30 -31
leaf_value=-769.82268629807686 -174.00363769531251 -394.99798317980407 2060.3760570549243 498.98078554687498 -108.36951497825416 -291.73992441249072 1056.4936138392857 -130.43980467732746 1774.76337890625 180.87019770067792 425.78300671895346 -197.82539630708243 -741.64633919270841 -131.2023988560268 1057.3580273437501 1014.8706729403409 -29.632331861413046 476.13932070777537 -288.39098392210144 -423.74250802678171 457.150913624483 -267.09688334147137 768.36402271412044 468.78004774305555 75.91139676593599 82.583564143105164 149.2760779244559 -493.57075142045454 -555.93664963942308 211.11913673663963
leaf_weight=65 20 67 33 50 111 133 35 30 26 43 48 21 60 35 20 22 23 21 69 139 34 24 27 27 21 63 28 55 52 58
leaf_count=65 20 67 33 50 111 133 35 30 26 43 48 21 60 35 20 22 23 21 69 139 34 24 27 27 21 63 28 55 52 58
internal_value=0 -152.99 1047.9 829.524 117.074 -406.613 980.431 204.982 1362.64 381.273 501.606 -173.977 -521.344 40.1739 656.111 656.614 150.096 129.943 -478.275 -521.092 235.709 -279.295 549.112 291.921 -107.026 12.4813 4.59545 -602.119 -655.424 142.758
internal_weight=0 1274 186 153 617 657 133 505 61 244 165 217 440 261 95 72 150 79 375 306 115 112 75 70 45 84 58 167 112 81
internal_count=1460 1274 186 153 617 657 133 505 61 244 165 217 440 261 95 72 150 79 375 306 115 112 75 70 45 84 58 167 112 81
is_linear=0
shrinkage=0.01


Tree=19
num_leaves=31
num_cat=0
split_feature=1 0 0 2 3 2 6 0 2 0 5 3 2 0 5 8 1 0 8 4 5 0 5 2 1 5 0 2 5 6
split_gain=2.29407e+12 8.55254e+11 4.05555e+11 2.64235e+11 2.11273e+11 1.72039e+11 1.30603e+11 1.22065e+11 1.18508e+11 1.03683e+11 9.2778e+10 6.26563e+10 5.16398e+10 4.97109e+10 3.58598e+10 3.09065e+10 3.02692e+10 2.96156e+10 2.13767e+10 1.93538e+10 1.93242e+10 1.63308e+10 1.70432e+10 1.58244e+10 1.55696e+10 1.20396e+10 1.12432e+10 9.63986e+09 9.39627e+09 8.22356e+09
threshold=2.5000000000000004 1411.5000000000002 2661.0000000000005 1671.5000000000002 1980.5000000000002 1149.5000000000002 1.0000000180025095e-35 1935.5000000000002 1025.0000000000002 2035.5000000000002 1275.5000000000002 1954.5000000000002 1467.0000000000002 1642.5000000000002 1108.0000000000002 1978.5000000000002 1.5000000000000002 1742.5000000000002 1920.5000000000002 1993.5000000000002 713.50000000000011 2241.5000000000005 930.50000000000011 646.00000000000011 1.5000000000000002 811.00000000000011 1053.5000000000002 786.00000000000011 181.00000000000003 1.0000000180025095e-35
decision_type=2 2 2 2 2 2 2 2 2 2 2 2 2 2 2 8 2 2 10 2 2 2 2 2 2 2 2 2 2 2
left_child=1 5 3 7 6 11 28 12 17 14 -5 18 -2 25 24 29 23 -6 -1 -11 -9 22 -15 -13 -8 -10 27 -20 -3 -7
right_child=2 4 -4 10 8 15 9 20 13 19 -12 16 -14 21 -16 -17 -18 -19 26 -21 -22 -23 -24 -25 -26 -27 -28 -29 -30 -31
leaf_value=-803.27737741023941 -106.18566597316577 -436.81924804687503 2382.6861093749999 1070.4606341552735 4.5136934902793486 -384.53831502278649 -267.37773511589899 761.61397744455655 204.63593798501151 295.58749098036026 1883.506328125 -685.4451704545454 515.01895446777348 451.41875331333711 328.8256622023809 69.172221237403761 -294.61540557861326 291.28156556359653 -760.95558493589749 672.06139481977982 1144.176886888587 924.76630859375007 789.42077463003318 -439.24937865234375 -40.391501834703526 493.41064730557525 -486.07281412760415 -535.63083944784626 -243.13846526389898 -145.56543810261621
leaf_weight=47 23 60 20 32 95 24 45 31 42 36 25 33 32 35 21 69 157 58 39 22 23 20 26 125 92 22 90 37 43 36
leaf_count=47 23 60 20 32 95 24 45 31 42 36 25 33 32 35 21 69 157 58 39 22 23 20 26 125 92 22 90 37 43 36
internal_value=0 -151.46 1037.42 875.342 115.904 -402.547 -62.9476 586.83 307.358 76.777 1427.06 -482.532 255.242 512.205 -55.9663 -75.1658 -392.954 113.223 -615.006 438.388 924.557 676.789 595.485 -490.67 -114.949 303.902 -561.7 -651.258 -355.962 -241.155
internal_weight=0 1274 186 166 617 657 319 109 298 216 57 528 55 145 158 129 315 153 213 58 54 81 61 158 137 64 166 76 103 60
internal_count=1460 1274 186 166 617 657 319 109 298 216 57 528 55 145 158 129 315 153 213 58 54 81 61 158 137 64 166 76 103 60
is_linear=0
shrinkage=0.01


Tree=20
num_leaves=31
num_cat=0
split_feature=1 0 2 3 0 2 6 2 3 0 5 0 7 8 8 5 0 3 5 4 0 5 1 0 5 0 5 2 6 7
split_gain=2.24842e+12 8.38234e+11 3.98597e+11 2.07077e+11 1.96097e+11 1.68822e+11 1.26418e+11 1.15183e+11 1.08116e+11 9.80235e+10 5.86258e+10 4.90868e+10 4.58191e+10 4.57687e+10 4.53444e+10 3.54258e+10 3.19526e+10 2.94291e+10 2.33405e+10 1.99699e+10 1.66292e+10 1.74876e+10 1.49536e+10 1.18738e+10 1.05453e+10 9.34326e+09 9.20929e+09 9.18299e+09 9.09935e+09 7.85859e+09
threshold=2.5000000000000004 1411.5000000000002 1844.5000000000002 1979.5000000000002 2293.0000000000005 1050.5000000000002 1.0000000180025095e-35 1025.0000000000002 1998.5000000000002 2035.5000000000002 764.00000000000011 1642.5000000000002 1371.0000000000002 1983.5000000000002 1920.5000000000002 1108.0000000000002 1763.0000000000002 1976.5000000000002 368.50000000000006 1993.5000000000002 2241.5000000000005 930.50000000000011 1.5000000000000002 1201.5000000000002 811.00000000000011 1131.5000000000002 181.00000000000003 786.00000000000011 1.0000000180025095e-35 908.50000000000011
decision_type=2 2 2 2 2 2 2 2 2 2 2 2 2 10 10 2 2 2 2 2 2 2 2 2 2 2 2 2 2 2
left_child=1 5 4 6 8 14 26 16 -2 15 -10 24 -6 28 -1 22 -5 18 25 -11 21 -13 -8 -15 -9 27 -3 -16 -7 -20
right_child=2 3 -4 7 12 13 9 11 10 19 -12 20 -14 23 17 -17 -18 -19 29 -21 -22 -23 -24 -25 -26 -27 -28 -29 -30 -31
leaf_value=-754.92852554086539 -96.953486083984373 -432.45105582682294 1956.0204196579391 6.363185104521194 1061.5547800611414 -366.54742122874535 -264.70395542738174 202.58958324977331 497.77335097656254 280.85523479352679 1027.0189718967015 441.17830190022789 1716.0079023437499 -193.44706245059061 -727.28762272135418 325.5374093191964 305.91605879350146 -282.27370067651725 -505.35183610882677 665.34078768643462 915.51864453125006 781.52656268780049 -40.599221637032251 81.123751743861604 468.96691533627717 -483.83742613636366 -240.70708073105922 -545.72616924579324 -201.07721244225138 -352.47727354468373
leaf_weight=65 20 60 37 101 23 68 45 42 50 35 36 36 20 21 60 21 55 69 57 22 20 26 88 63 23 55 43 52 65 82
leaf_count=65 20 60 37 101 23 68 45 42 50 35 36 36 20 21 60 21 55 69 57 22 20 26 88 63 23 55 43 52 65 82
internal_value=0 -149.946 1027.05 114.745 796.364 -398.521 -65.2171 301.239 565.305 74.973 719.318 502.092 1365.95 -170.262 -511.094 -56.1566 111.975 -468.83 -510.896 429.253 664.786 583.905 -116.424 12.481 296.846 -590.575 -352.403 -642.991 -285.679 -415.167
internal_weight=0 1274 186 617 149 657 314 303 106 211 86 147 43 217 440 154 156 375 306 57 82 62 133 84 65 167 103 112 133 139
internal_count=1460 1274 186 617 149 657 314 303 106 211 86 147 43 217 440 154 156 375 306 57 82 62 133 84 65 167 103 112 133 139
is_linear=0
shrinkage=0.01


Tree=21
num_leaves=31
num_cat=0
split_feature=1 0 0 5 2 2 4 3 9 0 0 3 3 0 0 8 1 1 6 4 0 8 2 2 6 5 0 3 5 0
split_gain=2.20368e+12 8.21553e+11 3.93007e+11 2.55706e+11 2.03183e+11 1.65495e+11 1.53121e+11 9.93509e+10 8.07178e+10 6.98555e+10 6.7282e+10 6.25656e+10 6.04561e+10 5.84701e+10 4.38132e+10 2.96677e+10 2.92274e+10 2.56282e+10 2.37811e+10 2.35178e+10 3.11229e+10 2.05656e+10 1.63378e+10 1.52456e+10 1.48966e+10 1.32977e+10 1.08382e+10 1.06861e+10 1.0463e+10 9.8499e+09
threshold=2.5000000000000004 1411.5000000000002 2661.0000000000005 1162.5000000000002 1050.5000000000002 1149.5000000000002 1992.5000000000002 1982.5000000000002 768.50000000000011 1800.5000000000002 1970.5000000000002 1919.5000000000002 1954.5000000000002 1919.5000000000002 1642.5000000000002 1978.5000000000002 1.5000000000000002 1.5000000000000002 1.5000000000000002 1979.5000000000002 1928.5000000000002 1920.5000000000002 1618.5000000000002 646.00000000000011 1.0000000180025095e-35 951.00000000000011 1053.5000000000002 2003.5000000000002 811.00000000000011 1656.5000000000002
decision_type=2 2 2 2 2 2 2 2 2 2 2 2 2 2 2 8 2 2 2 2 2 10 2 2 2 2 2 2 2 2
left_child=1 5 3 6 8 12 -2 9 17 24 22 -10 21 -5 28 -7 23 -3 -11 -13 29 -1 -8 -14 -6 -16 -23 -12 -9 -21
right_child=2 4 -4 13 7 15 10 14 11 18 27 19 16 -15 25 -17 -18 -19 -20 20 -22 26 -24 -25 -26 -27 -28 -29 -30 -31
leaf_value=-787.77796584109046 -178.5381105957031 -374.03697025622353 2341.0663710937501 1111.4317441406249 -296.90880161830358 -236.07038524373374 421.34083621651786 212.27924146270752 -358.28737530048079 211.68608354840958 925.22274325284093 -43.375109237279652 -672.19371152935605 1843.5356217447916 554.96744965277776 67.974005905372508 -288.36253085774223 -113.11528770446778 645.65443826426633 -30.148375976562502 490.53953812081477 -638.75789499383222 760.0943481445313 -430.54245980468755 15.400660108838764 821.62379463195805 -476.57511555989589 1240.5950279017857 483.78686684348366 204.98256597457393
leaf_weight=47 20 59 20 20 21 60 35 40 26 28 22 39 33 24 45 69 157 104 23 25 35 76 24 125 56 32 90 21 22 62
leaf_count=47 20 59 20 20 21 60 35 40 26 28 22 39 33 24 45 69 157 104 23 25 35 76 24 125 56 32 90 21 22 62
internal_value=0 -148.446 1016.78 857.225 113.597 -394.536 621.523 321.366 -44.9005 120.349 778.398 96.8823 -472.985 1510.76 506.475 -73.442 -384.994 -207.559 407.397 170.388 238.722 -603.112 559.139 -481.014 -69.7746 665.786 -550.827 1079.24 308.621 137.416
internal_weight=0 1274 186 166 617 657 122 267 350 128 102 187 528 44 139 129 315 163 51 161 122 213 59 158 77 77 166 43 62 87
internal_count=1460 1274 186 166 617 657 122 267 350 128 102 187 528 44 139 129 315 163 51 161 122 213 59 158 77 77 166 43 62 87
is_linear=0
shrinkage=0.01


Tree=22
num_leaves=31
num_cat=0
split_feature=1 0 2 0 1 0 2 2 3 4 0 8 8 7 9 5 4 0 3 0 5 0 0 5 5 9 3 2 3 0
split_gain=2.15983e+12 8.05205e+11 3.86914e+11 2.09763e+11 1.99484e+11 1.79215e+11 1.6253e+11 1.36093e+11 9.50866e+10 6.87491e+10 4.94773e+10 4.3963e+10 4.36652e+10 4.2372e+10 4.00744e+10 3.49783e+10 3.39694e+10 3.12828e+10 2.84066e+10 2.43171e+10 2.26069e+10 2.24296e+10 2.23091e+10 2.11281e+10 1.2692e+10 1.25644e+10 1.20539e+10 1.14422e+10 9.85227e+09 9.04523e+09
threshold=2.5000000000000004 1411.5000000000002 1716.0000000000002 2061.0000000000005 1.5000000000000002 2140.0000000000005 1050.5000000000002 1040.5000000000002 2001.5000000000002 1989.5000000000002 1642.5000000000002 1983.5000000000002 1920.5000000000002 1393.0000000000002 781.50000000000011 1153.5000000000002 1979.5000000000002 2035.5000000000002 1976.5000000000002 2091.5000000000005 368.50000000000006 1615.0000000000002 1928.5000000000002 222.50000000000003 719.50000000000011 686.50000000000011 1974.5000000000002 1240.5000000000002 2000.5000000000002 1131.5000000000002
decision_type=2 2 2 2 2 2 2 2 2 2 2 10 10 2 2 2 2 2 2 2 2 2 2 2 2 2 2 2 2 2
left_child=1 6 5 -4 23 8 12 14 -2 17 24 -8 -1 -7 -6 19 -16 26 20 28 29 -10 -18 -3 -11 -25 -9 -13 -12 -14
right_child=2 4 3 -5 7 13 11 9 21 10 15 27 18 -15 16 -17 22 -19 -20 -21 -22 -23 -24 25 -26 -27 -28 -29 -30 -31
leaf_value=-740.32261207932697 -179.31397192382815 -381.91144509386658 1202.9163958740235 2471.3707741477274 -105.63016262295011 946.25067901611328 -279.7422897178248 -114.99867964311079 362.76472678444605 174.52042909203504 243.8404581351902 -109.93236663818359 -630.89055541992184 1532.9978300781252 -127.77270228794643 988.88270774147725 137.7895973436332 440.38901519775391 -276.28504344663759 772.39195162259614 -406.6878092682104 763.98509251644737 443.00640075683594 -258.06133239746094 450.71681919642856 76.874436325799849 169.90618515579791 123.75694058504973 547.31581249999999 -474.29561443536937
leaf_weight=65 20 67 32 22 111 32 133 33 22 41 23 40 112 20 35 22 81 24 69 26 139 38 34 24 28 21 27 44 20 55
leaf_count=65 20 67 32 22 111 32 133 33 22 41 23 40 112 20 35 22 81 24 69 26 139 38 34 24 28 21 27 44 20 55
internal_value=0 -146.962 1006.61 1719.69 112.461 714.894 -390.59 197.14 417.825 366.924 488.548 -166.625 -501.046 1171.92 38.4145 641.673 145.008 135.26 -459.571 530.969 -500.901 616.871 228.028 -269.35 286.6 -101.758 13.2085 12.4763 384.992 -579.317
internal_weight=0 1274 186 54 617 132 657 505 80 244 160 217 440 52 261 91 150 84 375 69 306 60 115 112 69 45 60 84 43 167
internal_count=1460 1274 186 54 617 132 657 505 80 244 160 217 440 52 261 91 150 84 375 69 306 60 115 112 69 45 60 84 43 167
is_linear=0
shrinkage=0.01


Tree=23
num_leaves=31
num_cat=0
split_feature=1 0 5 4 3 2 0 6 2 0 7 3 0 7 8 5 0 1 8 4 0 5 1 2 5 0 2 2 5 0
split_gain=2.11685e+12 7.89181e+11 3.80368e+11 2.14586e+11 1.95973e+11 1.59373e+11 1.49666e+11 1.22789e+11 1.09503e+11 9.71149e+10 6.94831e+10 4.83537e+10 4.60115e+10 3.67677e+10 3.53345e+10 3.34907e+10 2.73809e+10 2.41234e+10 1.89822e+10 1.8226e+10 1.54816e+10 1.58365e+10 1.43487e+10 1.31609e+10 1.11607e+10 1.00026e+10 1.09612e+10 9.4223e+09 8.73008e+09 8.16556e+09
threshold=2.5000000000000004 1411.5000000000002 1311.5000000000002 1992.5000000000002 1980.5000000000002 1087.0000000000002 1970.5000000000002 1.0000000180025095e-35 1025.0000000000002 2035.5000000000002 1422.5000000000002 1954.5000000000002 1642.5000000000002 1689.5000000000002 1979.5000000000002 1108.0000000000002 1742.5000000000002 1.5000000000000002 1920.5000000000002 1993.5000000000002 2241.5000000000005 951.00000000000011 1.5000000000000002 646.00000000000011 811.00000000000011 1131.5000000000002 786.00000000000011 1240.5000000000002 181.00000000000003 1615.0000000000002
decision_type=2 2 2 2 2 2 2 2 2 2 2 2 2 2 10 2 2 2 10 2 2 2 2 2 2 2 2 2 2 2
left_child=1 5 3 -2 7 11 13 28 16 15 -8 18 24 29 -7 22 -6 23 -1 -11 21 -14 -9 -13 -10 26 -20 -16 -3 -5
right_child=2 4 -4 6 8 14 10 9 12 19 -12 17 20 -15 27 -17 -18 -19 25 -21 -22 -23 -24 -25 -26 -27 -28 -29 -30 -31
leaf_value=-776.04457795516316 -179.22717333984377 -422.96942020670576 1970.2641512784091 340.07399556477867 4.5874280138517678 -259.98509977976482 1005.3113186383929 -257.2375469970703 196.66230889456614 285.95583587646485 1687.7818419471153 -659.66880445075765 437.54795715332034 963.6579243607955 -93.99845277528506 317.95718052455362 280.32383092419855 -296.91624239603681 -716.07236409505208 651.29608231977988 892.42412890624996 765.17001708984378 -39.33330701745075 -431.73089162844036 474.69711464621804 -444.81837890625002 -505.52924852558209 122.51937283602629 -236.28074976721476 595.86525991586541
leaf_weight=46 20 60 33 24 95 96 35 45 42 36 26 33 36 22 37 21 58 132 48 22 20 25 92 109 22 61 51 44 43 26
leaf_count=46 20 60 33 24 95 96 35 45 42 36 26 33 36 22 37 21 58 132 48 22 20 25 92 109 22 61 51 44 43 26
internal_value=0 -145.492 996.544 786.526 111.337 -386.685 931.752 -60.9171 295.729 74.5633 1296.2 -481.263 492.639 622.983 -130.201 -53.9067 109.115 -394.236 -597.017 424.533 650.981 571.819 -110.908 -484.702 292.237 -545.546 -607.611 23.6162 -345.031 473.085
internal_weight=0 1274 186 153 617 657 133 319 298 216 61 480 145 72 177 158 153 274 206 58 81 61 137 142 64 160 99 81 103 50
internal_count=1460 1274 186 153 617 657 133 319 298 216 61 480 145 72 177 158 153 274 206 58 81 61 137 142 64 160 99 81 103 50
is_linear=0
shrinkage=0.01


Tree=24
num_leaves=31
num_cat=0
split_feature=1 0 0 5 3 2 3 6 2 0 0 3 0 0 5 4 0 4 2 0 4 2 0 5 1 5 2 2 5 0
split_gain=2.07472e+12 7.73476e+11 3.75323e+11 2.42414e+11 1.92073e+11 1.56469e+11 1.45027e+11 1.20346e+11 1.07324e+11 9.51823e+10 6.33613e+10 5.73139e+10 5.52251e+10 4.50959e+10 3.28242e+10 2.79704e+10 2.68361e+10 2.65336e+10 1.98358e+10 1.82907e+10 1.78633e+10 1.70312e+10 1.51735e+10 1.55442e+10 1.40631e+10 1.09386e+10 1.05948e+10 9.98864e+09 8.55635e+09 8.50879e+09
threshold=2.5000000000000004 1411.5000000000002 2661.0000000000005 1162.5000000000002 1980.5000000000002 1149.5000000000002 1990.5000000000002 1.0000000180025095e-35 1025.0000000000002 2035.5000000000002 1966.0000000000002 1949.5000000000002 1919.5000000000002 1642.5000000000002 1108.0000000000002 2000.5000000000002 1742.5000000000002 1973.5000000000002 650.50000000000011 1097.5000000000002 1993.5000000000002 1618.5000000000002 2241.5000000000005 913.50000000000011 1.5000000000000002 811.00000000000011 1223.5000000000002 614.00000000000011 181.00000000000003 993.00000000000011
decision_type=2 2 2 2 2 2 2 2 2 2 2 2 2 2 2 2 2 2 2 2 2 2 2 2 2 2 2 2 2 2
left_child=1 5 3 6 7 11 -2 28 16 14 21 19 -5 25 24 -7 -6 18 -13 27 -11 -8 23 -15 -9 -10 -12 -1 -3 -19
right_child=2 4 -4 12 8 15 10 9 13 20 26 17 -14 22 -16 -17 -18 29 -20 -21 -22 -23 -24 -25 -26 -27 -28 -29 -30 -31
leaf_value=-891.03071331521744 -177.46608496093751 -418.73972241210942 2280.7298964843753 1078.8908281250001 4.5415516951711554 -191.60982968813414 384.96980764678034 -254.66517382812501 194.69568740299769 283.09627770317928 884.27386294157611 -680.15014674831082 1790.3893294270836 419.05910126657199 314.77761904761905 108.58065354567309 277.52059271450702 -388.26064536830359 -420.37804880422317 -503.47379195601854 644.78311878551142 735.07380126953126 883.49989062500003 739.40059814453127 -38.939975028659987 469.95014916159892 1191.2300799005682 -648.05718833923345 -233.91794352686685 -247.22629125976565
leaf_weight=23 20 60 20 20 95 77 33 45 42 36 23 37 24 33 21 52 58 70 143 81 22 24 20 28 92 22 22 64 43 110
leaf_count=23 20 60 20 20 95 77 33 45 42 36 23 37 24 33 21 52 58 70 143 81 22 24 20 28 92 22 22 64 43 110
internal_value=0 -144.037 986.578 830.656 110.223 -382.818 601.162 -60.308 292.772 73.8177 753.835 -459.098 1466.98 487.712 -53.3676 -70.6028 108.024 -387.924 -473.776 -611.612 420.288 532.382 644.471 566.101 -109.799 289.314 1034.34 -712.292 -341.581 -302.073
internal_weight=0 1274 186 166 617 657 122 319 298 216 102 528 44 145 158 129 153 360 180 168 58 57 81 61 137 64 45 87 103 180
internal_count=1460 1274 186 166 617 657 122 319 298 216 102 528 44 145 158 129 153 360 180 168 58 57 81 61 137 64 45 87 103 180
is_linear=0
shrinkage=0.01


Tree=25
num_leaves=31
num_cat=0
split_feature=1 0 2 0 3 0 2 6 2 0 3 3 0 5 5 1 8 0 8 4 3 0 5 2 1 5 0 2 5 6
split_gain=2.03343e+12 7.58152e+11 3.68769e+11 2.02136e+11 1.92079e+11 1.69407e+11 1.56156e+11 1.19177e+11 1.08286e+11 9.21115e+10 8.77773e+10 5.68196e+10 3.87158e+10 3.18524e+10 3.11597e+10 2.81542e+10 2.68261e+10 2.55392e+10 1.93129e+10 1.75079e+10 1.67607e+10 1.48715e+10 1.52416e+10 1.42164e+10 1.3145e+10 1.15748e+10 1.02285e+10 8.93486e+09 8.38608e+09 7.96167e+09
threshold=2.5000000000000004 1415.0000000000002 1716.0000000000002 2061.0000000000005 1980.5000000000002 2322.0000000000005 1149.5000000000002 1.0000000180025095e-35 1025.0000000000002 2035.5000000000002 1999.5000000000002 1954.5000000000002 1642.5000000000002 1108.0000000000002 764.00000000000011 1.5000000000000002 1978.5000000000002 1742.5000000000002 1920.5000000000002 1993.5000000000002 1998.5000000000002 2241.5000000000005 951.00000000000011 646.00000000000011 1.5000000000000002 811.00000000000011 1053.5000000000002 786.00000000000011 181.00000000000003 1.0000000180025095e-35
decision_type=2 2 2 2 2 2 2 2 2 2 2 2 2 2 2 2 8 2 10 2 2 2 2 2 2 2 2 2 2 2
left_child=1 6 5 -4 7 10 11 28 17 13 -2 18 25 24 -12 23 29 -6 -1 -11 -7 22 -14 -13 -9 -10 27 -20 -3 -8
right_child=2 4 3 -5 8 20 16 9 12 19 14 15 21 -15 -16 -17 -18 -19 26 -21 -22 -23 -24 -25 -26 -27 -28 -29 -30 -31
leaf_value=-758.13306599069153 -115.58004278273809 -414.55232853190108 1165.5794360351563 2410.760362215909 7.3607600271573634 1028.3167122395832 -367.72860921223963 -248.93445628773082 204.65188658142091 280.2653161621094 459.38121243563569 -647.32309718276508 428.71493245442713 311.62983444940477 896.03054987980772 -274.22534918251279 58.762547456924231 274.74538275356952 -719.91161258012824 638.33528431285515 1432.8114550781249 874.66489453125007 750.12431660156244 -413.97109377929689 -38.410786122751759 494.57384862808954 -457.14344463641828 -502.98264325116139 -231.57876473360284 -132.59170505099826
leaf_weight=47 21 60 32 22 93 21 24 44 40 36 44 33 36 21 26 159 73 58 39 22 20 20 25 125 91 21 91 37 43 36
leaf_count=47 21 60 32 22 93 21 24 44 40 36 44 33 36 21 26 159 73 58 39 22 20 20 25 125 91 21 91 37 43 36
internal_value=0 -142.597 976.713 1672.88 111.918 691.919 -376.413 -58.6826 296.492 75.8348 451.455 -453.162 494.734 -50.6684 621.565 -368.17 -69.9934 110.065 -579.062 416.085 1225.63 638.026 560.44 -462.709 -107.026 304.461 -528.664 -614.301 -338.165 -226.646
internal_weight=0 1274 186 54 610 132 664 317 293 214 91 531 142 156 70 317 133 151 214 58 41 81 61 158 135 61 167 76 103 60
internal_count=1460 1274 186 54 610 132 664 317 293 214 91 531 142 156 70 317 133 151 214 58 41 81 61 158 135 61 167 76 103 60
is_linear=0
shrinkage=0.01


Tree=26
num_leaves=31
num_cat=0
split_feature=1 0 0 5 3 2 3 6 2 0 0 3 0 0 5 1 4 0 8 4 2 0 5 2 1 5 2 0 2 5
split_gain=1.99297e+12 7.43065e+11 3.63303e+11 2.34481e+11 1.88257e+11 1.53048e+11 1.40357e+11 1.16805e+11 1.06131e+11 9.02785e+10 6.10147e+10 5.56889e+10 5.3028e+10 3.79454e+10 3.12186e+10 2.75939e+10 2.64878e+10 2.50569e+10 1.89286e+10 1.71595e+10 1.63745e+10 1.45756e+10 1.49604e+10 1.39335e+10 1.28835e+10 1.13444e+10 1.00753e+10 1.00249e+10 8.75706e+09 8.2192e+09
threshold=2.5000000000000004 1415.0000000000002 2661.0000000000005 1162.5000000000002 1980.5000000000002 1149.5000000000002 1990.5000000000002 1.0000000180025095e-35 1025.0000000000002 2035.5000000000002 1966.0000000000002 1954.5000000000002 1919.5000000000002 1642.5000000000002 1108.0000000000002 1.5000000000000002 2000.5000000000002 1763.0000000000002 1920.5000000000002 1993.5000000000002 1618.5000000000002 2241.5000000000005 913.50000000000011 646.00000000000011 1.5000000000000002 811.00000000000011 1223.5000000000002 1053.5000000000002 786.00000000000011 181.00000000000003
decision_type=2 2 2 2 2 2 2 2 2 2 2 2 2 2 2 2 2 2 10 2 2 2 2 2 2 2 2 2 2 2
left_child=1 5 3 6 7 11 -2 29 17 14 20 18 -5 25 24 23 -7 -6 -1 -11 -8 22 -15 -13 -9 -10 -12 28 -20 -3
right_child=2 4 -4 12 8 16 10 9 13 19 26 15 -14 21 -16 -17 -18 -19 27 -21 -22 -23 -24 -25 -26 -27 -28 -29 -30 -31
leaf_value=-750.55173454122348 -178.15521435546876 -410.40680607096357 2240.2049707031251 1059.0750336914064 12.850264651898256 -187.79698916704226 376.17126006155303 -246.44511174982244 202.60536923599244 277.46266259087457 866.94731827445651 -640.84987926136364 1756.2765039062501 410.58136186079543 308.51354817708335 -271.48309693534418 98.76608189808239 281.61313856336807 -712.71249599358976 631.95194180575288 719.45902180989583 865.91824804687496 724.84972133091526 -409.83138050292968 -38.026676555256266 489.62809544154572 1166.28470703125 -452.57201163826409 -497.95281692092482 -229.26297652843388
leaf_weight=47 20 60 20 20 97 78 33 44 40 36 23 33 24 33 21 159 55 54 39 22 24 20 28 125 91 21 22 91 37 43
leaf_count=47 20 60 20 20 97 78 33 44 40 36 23 33 24 33 21 159 55 54 39 22 24 20 28 125 91 21 22 91 37 43
internal_value=0 -141.171 966.945 813.541 110.798 -372.649 587.833 -58.0957 293.527 75.0765 738.027 -448.631 1439.37 489.787 -50.1617 -364.488 -69.2935 108.964 -573.271 411.924 520.713 631.646 554.836 -458.082 -105.956 301.416 1013.29 -523.378 -608.158 -334.784
internal_weight=0 1274 186 166 610 664 122 317 293 214 102 531 44 142 156 317 133 151 214 58 57 81 61 158 135 61 45 167 76 103
internal_count=1460 1274 186 166 610 664 122 317 293 214 102 531 44 142 156 317 133 151 214 58 57 81 61 158 135 61 45 167 76 103
is_linear=0
shrinkage=0.01


Tree=27
num_leaves=31
num_cat=0
split_feature=1 0 2 0 3 0 2 6 2 0 3 3 7 0 8 5 0 1 0 8 4 0 5 1 7 5 0 2 5 2
split_gain=1.95331e+12 7.28278e+11 3.5697e+11 1.95991e+11 1.8451e+11 1.62741e+11 1.50046e+11 1.14481e+11 1.04019e+11 8.84819e+10 8.81107e+10 4.5285e+10 3.75497e+10 3.71903e+10 3.26607e+10 3.05973e+10 2.456e+10 2.34661e+10 2.0627e+10 1.91025e+10 1.6818e+10 1.42855e+10 1.4669e+10 1.26271e+10 1.2306e+10 1.11187e+10 9.53231e+09 1.08092e+10 8.05564e+09 8.04746e+09
threshold=2.5000000000000004 1415.0000000000002 1716.0000000000002 2061.0000000000005 1980.5000000000002 2140.0000000000005 1087.0000000000002 1.0000000180025095e-35 1025.0000000000002 2035.5000000000002 2001.5000000000002 1955.5000000000002 1393.0000000000002 1642.5000000000002 1979.5000000000002 1108.0000000000002 1742.5000000000002 1.5000000000000002 1615.0000000000002 1920.5000000000002 1993.5000000000002 2241.5000000000005 951.00000000000011 1.5000000000000002 639.50000000000011 811.00000000000011 1131.5000000000002 786.00000000000011 181.00000000000003 1240.5000000000002
decision_type=2 2 2 2 2 2 2 2 2 2 2 2 2 2 10 2 2 2 2 10 2 2 2 2 2 2 2 2 2 2
left_child=1 6 5 -4 7 10 11 28 16 15 -2 19 -7 25 -8 23 -6 24 -12 -1 -11 22 -15 -9 -13 -10 27 -21 -3 -16
right_child=2 4 3 -5 8 12 14 9 13 20 18 17 -14 21 29 -17 -18 -19 -20 26 -22 -23 -24 -25 -26 -27 -28 -29 -30 -31
leaf_value=-747.26126080452127 -180.82848974609377 -406.30273380533856 1142.6859332275392 2368.7941033380685 7.1586499154695904 900.14966796875001 -249.75980144500733 -243.98065940163355 200.57931175804137 274.68803428649903 341.91290116743608 -670.3276245117188 1452.5003945312501 420.06007921006949 -88.814601408305919 305.42840959821427 269.36715456206224 -277.08478866222293 726.67371145148024 -686.29514748086729 625.63242276278413 857.25904687500008 735.37456445312512 -37.646411380977419 -421.37825679347827 484.73181884765626 -423.17285186767577 -482.05854563210227 -226.97034350018171 106.88873524767287
leaf_weight=47 20 60 32 22 93 32 96 44 40 36 22 24 20 36 38 21 58 129 38 49 22 20 25 91 115 21 64 55 43 47
leaf_count=47 20 60 32 22 93 32 96 44 40 36 22 24 20 36 38 21 58 129 38 49 22 20 25 91 115 21 64 55 43 47
internal_value=0 -139.759 957.276 1642.21 109.69 677.075 -368.922 -57.5148 290.591 74.3257 393.989 -460.945 1112.59 484.889 -123.36 -49.6601 107.874 -374.218 585.595 -569.051 407.805 625.33 549.287 -104.896 -464.362 298.402 -519.195 -578.285 -331.436 19.3978
internal_weight=0 1274 186 54 610 132 664 317 293 214 80 483 52 142 181 156 151 268 60 215 58 81 61 135 139 61 168 104 103 85
internal_count=1460 1274 186 54 610 132 664 317 293 214 80 483 52 142 181 156 151 268 60 215 58 81 61 135 139 61 168 104 103 85
is_linear=0
shrinkage=0.01


Tree=28
num_leaves=31
num_cat=0
split_feature=1 0 5 4 3 2 0 6 2 0 7 3 0 5 5 4 4 0 2 0 6 0 5 9 5 2 0 0 5 0
split_gain=1.91444e+12 7.13785e+11 3.52229e+11 1.96738e+11 1.80839e+11 1.47264e+11 1.3592e+11 1.12203e+11 1.01949e+11 8.67211e+10 6.27714e+10 5.35591e+10 3.64502e+10 3.40667e+10 3.00736e+10 2.5948e+10 2.55713e+10 2.40964e+10 1.84021e+10 1.74237e+10 1.6508e+10 1.40013e+10 1.43985e+10 1.29496e+10 1.08974e+10 9.54974e+09 8.49218e+09 7.90754e+09 7.89533e+09 7.65246e+09
threshold=2.5000000000000004 1415.0000000000002 1311.5000000000002 1992.5000000000002 1980.5000000000002 1149.5000000000002 1970.5000000000002 1.0000000180025095e-35 1025.0000000000002 2035.5000000000002 1422.5000000000002 1949.5000000000002 1642.5000000000002 1002.5000000000001 624.50000000000011 1973.5000000000002 2000.5000000000002 1763.0000000000002 650.50000000000011 1097.5000000000002 1.5000000000000002 2241.5000000000005 913.50000000000011 696.50000000000011 811.00000000000011 614.00000000000011 993.00000000000011 970.50000000000011 181.00000000000003 1627.5000000000002
decision_type=2 2 2 2 2 2 2 2 2 2 2 2 2 2 2 2 2 2 2 2 2 2 2 2 2 2 2 2 2 2
left_child=1 5 3 -2 7 11 13 28 17 14 -8 19 24 29 23 18 -7 -6 -13 25 -11 22 -14 -9 -10 -1 -17 -20 -3 -5
right_child=2 4 -4 6 8 16 10 9 12 20 -12 15 21 -15 -16 26 -18 -19 27 -21 -22 -23 -24 -25 -26 -27 -28 -29 -30 -31
leaf_value=-860.09713654891311 -179.11420043945313 -402.23970906575522 1884.7150899621213 297.08032278878352 12.542048550635268 -184.10118195362583 955.48459095982139 -224.18172738075256 198.57351783752441 261.98438671785243 1604.1563634314903 -655.05277977195954 402.27493903882578 907.90139818274463 195.50576897872122 -373.35055817522323 97.460748623934649 276.10333236129196 -489.84131583921373 -482.16517899676069 604.52860351562504 848.68646484375006 710.58532767159602 -13.909164168746385 479.88450049990701 -622.52172134399416 -232.94405136789595 -339.78637898763026 -224.70064291310865 549.60858258928579
leaf_weight=23 20 60 33 21 97 78 35 64 40 34 26 37 33 23 38 70 55 54 62 82 24 20 28 54 21 64 112 81 43 28
leaf_count=23 20 60 33 21 97 78 35 64 40 34 26 37 33 23 38 70 55 54 62 82 24 20 28 54 21 64 112 81 43 28
internal_value=0 -138.362 947.703 745.603 108.593 -365.233 884.658 -56.9396 287.686 73.5825 1231.97 -439.765 480.04 590.409 -49.1635 -371.144 -67.6658 106.796 -456.277 -586.752 403.727 619.076 543.794 -127.955 295.418 -685.329 -286.947 -404.845 -328.121 441.382
internal_weight=0 1274 186 153 610 664 133 317 293 214 61 531 142 72 156 362 133 151 180 169 58 81 61 118 61 87 182 143 103 49
internal_count=1460 1274 186 153 610 664 133 317 293 214 61 531 142 72 156 362 133 151 180 169 58 81 61 118 61 87 182 143 103 49
is_linear=0
shrinkage=0.01


Tree=29
num_leaves=31
num_cat=0
split_feature=1 0 0 2 2 2 0 4 5 9 3 3 2 0 0 5 1 8 1 4 0 3 8 3 0 5 3 2 5 0
split_gain=1.87634e+12 6.99581e+11 3.47001e+11 2.22061e+11 1.77386e+11 1.44333e+11 1.03418e+11 8.7982e+10 7.94271e+10 7.25541e+10 5.64412e+10 5.25309e+10 4.60856e+10 4.20555e+10 3.93734e+10 3.70788e+10 2.62615e+10 2.51392e+10 2.15039e+10 2.12522e+10 2.73594e+10 1.79823e+10 1.79642e+10 1.71105e+10 1.64971e+10 1.62e+10 1.33638e+10 1.31803e+10 1.22157e+10 9.45981e+09
threshold=2.5000000000000004 1415.0000000000002 2661.0000000000005 1671.5000000000002 1050.5000000000002 1149.5000000000002 1935.5000000000002 1989.5000000000002 1275.5000000000002 768.50000000000011 1919.5000000000002 1954.5000000000002 1467.0000000000002 1638.5000000000002 2035.5000000000002 1153.5000000000002 1.5000000000000002 1978.5000000000002 1.5000000000000002 1979.5000000000002 1928.5000000000002 1974.5000000000002 1920.5000000000002 1973.5000000000002 2091.5000000000005 713.50000000000011 1999.5000000000002 646.00000000000011 427.50000000000006 1053.5000000000002
decision_type=2 2 2 2 2 2 2 2 2 2 2 2 2 2 2 2 2 8 2 2 2 2 10 2 2 2 2 2 2 2
left_child=1 5 3 6 9 11 12 14 -5 18 -11 22 -2 26 21 23 27 -7 -3 -12 -21 -6 -1 -15 -25 -8 -9 -13 -28 -24
right_child=2 4 -4 8 7 17 25 13 -10 10 19 16 -14 15 -16 -17 -18 -19 -20 20 -22 -23 29 24 -26 -27 28 -29 -30 -31
leaf_value=-729.12787275598396 -122.83456261676291 -350.38369655214507 2182.5912812500001 964.13299987792971 -171.65022966467816 -218.63686065673829 685.48590032762093 80.904114764178246 1716.408103125 -338.55153508112983 -39.202609362479969 -622.71105350378787 464.01245452880858 221.0750114746094 415.49006226857506 938.43337624289779 -262.9138752852146 57.65282569362693 -109.64879866072275 133.30270193942758 464.93979178292409 153.45406057852287 -590.17307061446343 431.71489536830359 791.74300000000005 1035.7617697010869 203.45427746859463 -398.02339483306883 544.92755468749999 -439.03564204960082
leaf_weight=47 23 58 20 32 46 60 31 27 25 26 39 33 32 20 24 22 159 73 103 86 35 27 76 35 20 23 22 125 20 91
leaf_count=47 23 58 20 32 46 60 31 27 25 26 39 33 32 20 24 22 159 73 103 86 35 27 76 35 20 23 22 125 20 91
internal_value=0 -136.978 938.226 788.303 107.508 -361.581 523.815 303.384 1294.08 -40.9522 93.5789 -435.367 218.604 443.198 64.1145 577.442 -353.646 -66.9891 -196.373 163.8 229.231 -51.4062 -556.422 471.552 562.634 834.677 254.478 -444.952 366.061 -507.817
internal_weight=0 1274 186 166 610 664 109 263 57 347 186 531 55 166 97 97 317 133 161 160 121 73 214 75 55 54 69 158 42 167
internal_count=1460 1274 186 166 610 664 109 263 57 347 186 531 55 166 97 97 317 133 161 160 121 73 214 75 55 54 69 158 42 167
is_linear=0
shrinkage=0.01


Tree=30
num_leaves=31
num_cat=0
split_feature=1 0 0 5 3 2 3 6 2 0 0 0 8 8 0 5 4 0 4 2 2 0 5 3 1 5 0 2 6 3
split_gain=1.839e+12 6.85659e+11 3.40096e+11 2.18134e+11 1.74003e+11 1.41664e+11 1.32492e+11 1.0902e+11 9.79663e+10 8.38403e+10 5.657e+10 4.95783e+10 3.88725e+10 3.78826e+10 3.50475e+10 2.91095e+10 2.67118e+10 2.31828e+10 1.63639e+10 1.59677e+10 1.48722e+10 1.35077e+10 1.39033e+10 1.20525e+10 1.20436e+10 1.0526e+10 9.34929e+09 9.17554e+09 8.54585e+09 7.63309e+09
threshold=2.5000000000000004 1415.0000000000002 2661.0000000000005 1162.5000000000002 1980.5000000000002 1050.5000000000002 1990.5000000000002 1.0000000180025095e-35 1025.0000000000002 2035.5000000000002 1966.0000000000002 1919.5000000000002 1920.5000000000002 1983.5000000000002 1642.5000000000002 1108.0000000000002 1976.5000000000002 1742.5000000000002 1993.5000000000002 560.50000000000011 1618.5000000000002 2241.5000000000005 913.50000000000011 1956.5000000000002 1.5000000000000002 811.00000000000011 1201.5000000000002 1223.5000000000002 1.0000000180025095e-35 1912.5000000000002
decision_type=2 2 2 2 2 2 2 2 2 2 2 2 10 10 2 2 2 2 2 2 2 2 2 2 2 2 2 2 2 2
left_child=1 5 3 6 7 12 -2 29 17 15 20 -5 -1 28 25 24 19 -6 -11 -14 -8 22 -16 -18 -9 -10 -15 -12 -7 -3
right_child=2 4 -4 11 8 13 10 9 14 18 27 -13 16 26 21 -17 23 -19 -20 -21 -22 -23 -24 -25 -26 -27 -28 -29 -30 -31
leaf_value=-687.02774459134616 -181.49467138671878 -493.35978794642858 2160.7653730468751 1016.322056640625 6.934806544806368 -336.03289719525509 361.64618751294688 -237.68382672396572 194.4521390991211 266.02239372253416 834.0393529211957 1690.4643717447916 -700.33162475585937 -174.31769519624257 393.99435280539774 298.37301339285716 -438.52127669301524 261.68609965357285 612.19677867542612 -458.59240312056107 688.80802897135425 832.52844140625007 696.95583844866064 -257.65277223832538 -36.173270277086196 470.927610328311 67.497504354448466 1119.6976491477271 -175.67423565673829 -279.68548991877861
leaf_weight=65 20 21 20 20 93 68 33 44 40 36 23 24 32 21 33 21 58 58 22 187 24 20 28 101 91 21 67 22 65 82
leaf_count=65 20 21 20 20 93 68 33 44 40 36 23 24 32 21 33 21 58 58 22 187 24 20 28 101 91 21 67 22 65 82
internal_value=0 -135.608 928.844 780.42 106.432 -357.965 562.722 -55.9421 282.107 72.7155 708.647 1384.04 -461.132 -151.165 470.667 -47.9745 -422.287 104.786 397.33 -493.915 499.399 607.002 533.059 -323.63 -101.851 289.632 9.7916 973.695 -257.662 -323.25
internal_weight=0 1274 186 166 610 664 122 317 293 214 102 44 443 221 142 156 378 151 58 219 57 81 61 159 135 61 88 45 133 103
internal_count=1460 1274 186 166 610 664 122 317 293 214 102 44 443 221 142 156 378 151 58 219 57 81 61 159 135 61 88 45 133 103
is_linear=0
shrinkage=0.01


Tree=31
num_leaves=31
num_cat=0
split_feature=1 0 2 0 2 0 2 4 3 9 3 3 0 0 5 8 5 1 1 4 0 3 3 3 8 0 3 5 2 0
split_gain=1.8024e+12 6.72014e+11 3.353e+11 1.87115e+11 1.70758e+11 1.51137e+11 1.38869e+11 8.47299e+10 7.98183e+10 7.03569e+10 5.44861e+10 4.16025e+10 4.05773e+10 3.80957e+10 3.60558e+10 3.20881e+10 2.77609e+10 2.14872e+10 2.06838e+10 2.0535e+10 2.65293e+10 1.73279e+10 1.63818e+10 1.60356e+10 1.60029e+10 1.5907e+10 1.30077e+10 1.18261e+10 1.10835e+10 9.8806e+09
threshold=2.5000000000000004 1415.0000000000002 1716.0000000000002 2061.0000000000005 1050.5000000000002 2322.0000000000005 1073.5000000000002 1989.5000000000002 1999.5000000000002 768.50000000000011 1919.5000000000002 1954.5000000000002 1638.5000000000002 2035.5000000000002 1153.5000000000002 1983.5000000000002 764.00000000000011 1.5000000000000002 1.5000000000000002 1979.5000000000002 1928.5000000000002 1974.5000000000002 1973.5000000000002 1998.5000000000002 1920.5000000000002 2091.5000000000005 1999.5000000000002 427.50000000000006 646.00000000000011 1131.5000000000002
decision_type=2 2 2 2 2 2 2 2 2 2 2 2 2 2 2 10 2 2 2 2 2 2 2 2 10 2 2 2 2 2
left_child=1 6 5 -4 9 8 11 13 -2 18 -11 24 26 21 22 -8 -10 28 -3 -12 -21 -6 -14 -7 -1 -24 -9 -28 -13 -26
right_child=2 4 3 -5 7 23 15 12 16 10 19 17 14 -15 -16 -17 -18 -19 -20 20 -22 -23 25 -25 29 -27 27 -29 -30 -31
leaf_value=-718.12405825407609 -119.85175571986608 -344.38627389842071 1095.293189086914 2293.3144921875 -168.92253837253736 959.10558640252975 -244.10901906622024 78.136654233579279 429.99680318659006 -332.3930393629808 -38.366827924679491 -610.62115293560612 217.11559802246094 408.37141326904299 922.59620561079544 16.413190967648529 842.14416541466346 -271.50502532249271 -108.28644571545055 131.03689092236897 457.60366856166291 150.21214256004052 422.76532059151788 1354.754068359375 -569.73842241923012 776.29579980468759 199.47521351207388 535.46020312500002 -400.99079836266066 -407.78553130119082
leaf_weight=46 21 58 32 22 46 21 105 27 44 26 39 33 20 24 22 86 26 129 103 86 35 27 35 20 96 20 22 20 107 62
leaf_count=46 21 58 32 22 46 21 105 27 44 26 39 33 20 24 22 86 26 129 103 86 35 27 35 20 96 20 22 20 107 62
internal_value=0 -134.252 919.555 1583.38 105.368 647.993 -354.385 297.55 420.865 -40.2914 92.187 -446.283 434.756 62.7444 566.62 -126.806 583.08 -364.612 -193.341 161.181 225.498 -50.8864 462.2 1152.1 -553.977 551.322 249.382 359.468 -450.404 -506.187
internal_weight=0 1274 186 54 610 132 664 263 91 347 186 473 166 97 97 191 70 269 161 160 121 73 75 41 204 55 69 42 140 158
internal_count=1460 1274 186 54 610 132 664 263 91 347 186 473 166 97 97 191 70 269 161 160 121 73 75 41 204 55 69 42 140 158
is_linear=0
shrinkage=0.01


Tree=32
num_leaves=31
num_cat=0
split_feature=1 0 5 4 3 2 0 6 2 0 7 3 0 5 5 4 4 0 2 0 4 0 5 9 5 2 0 0 5 0
split_gain=1.76654e+12 6.58641e+11 3.29899e+11 1.84706e+11 1.67423e+11 1.3644e+11 1.25804e+11 1.05931e+11 9.41379e+10 8.10551e+10 5.81094e+10 5.00168e+10 3.36982e+10 3.17568e+10 2.81848e+10 2.43724e+10 2.41203e+10 2.23009e+10 1.71347e+10 1.6447e+10 1.58974e+10 1.30315e+10 1.34243e+10 1.2432e+10 1.01671e+10 9.17156e+09 8.11059e+09 7.56301e+09 7.39385e+09 7.14317e+09
threshold=2.5000000000000004 1415.0000000000002 1311.5000000000002 1992.5000000000002 1980.5000000000002 1149.5000000000002 1970.5000000000002 1.0000000180025095e-35 1025.0000000000002 2035.5000000000002 1422.5000000000002 1949.5000000000002 1642.5000000000002 1002.5000000000001 624.50000000000011 1973.5000000000002 2000.5000000000002 1742.5000000000002 650.50000000000011 1097.5000000000002 1993.5000000000002 2241.5000000000005 913.50000000000011 696.50000000000011 811.00000000000011 614.00000000000011 993.00000000000011 970.50000000000011 181.00000000000003 1627.5000000000002
decision_type=2 2 2 2 2 2 2 2 2 2 2 2 2 2 2 2 2 2 2 2 2 2 2 2 2 2 2 2 2 2
left_child=1 5 3 -2 7 11 13 28 17 14 -8 19 24 29 23 18 -7 -6 -13 25 -11 22 -14 -9 -10 -1 -17 -20 -3 -5
right_child=2 4 -4 6 8 16 10 9 12 20 -12 15 21 -15 -16 26 -18 -19 27 -21 -22 -23 -24 -25 -26 -27 -28 -29 -30 -31
leaf_value=-831.67229279891308 -181.22459912109375 -390.17979899088539 1817.1840411931819 283.11660388038274 6.8417732927876136 -177.50146632267879 917.62379910714287 -217.36821227073671 190.41516128540039 261.61578531901046 1541.7428598257213 -630.58565139358109 385.88298265861744 872.95903490149465 190.05455049213612 -359.10861174665183 95.954981201171876 256.70025891008049 -472.27169165826615 -463.01204229587466 602.82054909446026 816.67488085937498 683.57996233258939 -11.340718568519311 462.1360607328869 -598.84853906631474 -221.89287314823696 -325.52207114137252 -218.3714702943314 527.09690290178571
leaf_weight=23 20 60 33 21 93 78 35 64 40 36 26 37 33 23 38 70 55 58 62 82 22 20 28 54 21 64 112 81 43 28
leaf_count=23 20 60 33 21 93 78 35 64 40 36 26 37 33 23 38 70 55 58 62 82 22 20 28 54 21 64 112 81 43 28
internal_value=0 -132.91 910.36 714.77 104.314 -350.841 849.507 -54.9604 276.636 71.8613 1183.64 -422.582 461.474 566.42 -46.807 -356.269 -64.418 102.814 -438.777 -564.626 391.038 595.159 522.531 -123.084 283.958 -660.4 -274.668 -389.148 -318.454 422.534
internal_weight=0 1274 186 153 610 664 133 317 293 214 61 531 142 72 156 362 133 151 180 169 58 81 61 118 61 87 182 143 103 49
internal_count=1460 1274 186 153 610 664 133 317 293 214 61 531 142 72 156 362 133 151 180 169 58 81 61 118 61 87 182 143 103 49
is_linear=0
shrinkage=0.01


Tree=33
num_leaves=31
num_cat=0
split_feature=1 0 0 2 2 2 4 4 5 9 0 3 3 0 0 5 4 4 1 4 0 2 3 0 3 0 3 5 2 2
split_gain=1.73138e+12 6.45534e+11 3.25346e+11 2.07005e+11 1.64527e+11 1.33725e+11 9.70356e+10 8.16031e+10 7.39258e+10 6.80862e+10 5.70643e+10 5.27281e+10 4.90214e+10 3.91191e+10 3.68324e+10 3.50926e+10 2.38873e+10 2.36403e+10 1.99693e+10 1.98698e+10 2.57384e+10 1.67937e+10 1.65992e+10 1.61197e+10 1.56868e+10 1.53375e+10 1.26233e+10 1.14492e+10 9.08176e+09 8.98904e+09
threshold=2.5000000000000004 1415.0000000000002 2661.0000000000005 1671.5000000000002 1050.5000000000002 1149.5000000000002 1993.5000000000002 1989.5000000000002 1275.5000000000002 768.50000000000011 1966.0000000000002 1919.5000000000002 1949.5000000000002 1638.5000000000002 2035.5000000000002 1153.5000000000002 1973.5000000000002 2000.5000000000002 1.5000000000000002 1979.5000000000002 1928.5000000000002 650.50000000000011 1974.5000000000002 1097.5000000000002 1973.5000000000002 2091.5000000000005 1999.5000000000002 427.50000000000006 1484.5000000000002 614.00000000000011
decision_type=2 2 2 2 2 2 2 2 2 2 2 2 2 2 2 2 2 2 2 2 2 2 2 2 2 2 2 2 2 2
left_child=1 5 3 6 9 12 -2 14 -5 18 28 -11 23 26 22 24 21 -7 -3 -13 -21 -14 -6 29 -15 -26 -9 -28 -8 -1
right_child=2 4 -4 8 7 17 10 13 -10 11 -12 19 16 15 -16 -17 -18 -19 -20 20 -22 -23 -24 -25 25 -27 27 -29 -30 -31
leaf_value=-823.35556385869575 -110.05751627604167 -338.67881480253976 2106.1686113281253 926.10147399902348 -165.77662040378735 -175.72645461644882 251.26159333801269 75.855811897560415 1651.8570000000002 -327.05702035757213 925.42871875000003 -37.800175530849359 -624.2797930743244 213.19245642089845 401.32960708618162 907.22647283380684 -271.92147535051618 94.995431551846593 -106.69277376193445 128.71339505306511 450.37591141183037 -385.25630229576484 146.57526561595776 -458.38192299447411 413.99838630022322 761.14228222656254 195.57630859375001 526.16353173828122 530.26642961774553 -592.86005443573004
leaf_weight=23 21 58 20 32 46 78 20 27 25 26 40 39 37 20 24 22 182 55 103 86 35 143 27 82 35 20 22 20 28 64
leaf_count=23 21 58 20 32 46 78 20 27 25 26 40 39 37 20 24 22 182 55 103 86 35 143 27 82 35 20 22 20 28 64
internal_value=0 -131.581 901.256 756.086 103.271 -347.333 500.721 291.914 1244.42 -39.7058 646.475 90.6173 -418.356 426.564 61.4816 556.037 -352.706 -63.7738 -190.265 158.489 221.756 -434.389 -50.2492 -558.98 453.022 540.233 244.552 352.999 414.014 -653.796
internal_weight=0 1274 186 166 610 664 109 263 57 347 88 186 531 166 97 97 362 133 161 160 121 180 73 169 75 55 69 42 48 87
internal_count=1460 1274 186 166 610 664 109 263 57 347 88 186 531 166 97 97 362 133 161 160 121 180 73 169 75 55 69 42 48 87
is_linear=0
shrinkage=0.01


Tree=34
num_leaves=31
num_cat=0
split_feature=1 0 2 0 2 0 7 4 3 9 3 3 0 8 0 5 5 1 4 0 3 2 3 3 0 4 3 6 5 5
split_gain=1.69693e+12 6.32688e+11 3.1889e+11 1.80588e+11 1.61253e+11 1.43111e+11 1.31218e+11 7.99792e+10 7.55656e+10 6.67313e+10 5.16788e+10 4.09131e+10 3.83407e+10 3.75331e+10 3.60994e+10 3.43942e+10 2.60504e+10 1.95719e+10 1.94744e+10 2.52262e+10 1.62689e+10 1.60699e+10 1.53788e+10 1.53746e+10 1.50323e+10 1.4886e+10 1.23721e+10 1.19478e+10 1.12214e+10 8.51539e+09
threshold=2.5000000000000004 1415.0000000000002 1716.0000000000002 2061.0000000000005 1050.5000000000002 2322.0000000000005 1077.5000000000002 1989.5000000000002 1999.5000000000002 768.50000000000011 1919.5000000000002 1983.5000000000002 1638.5000000000002 1958.5000000000002 2035.5000000000002 1153.5000000000002 764.00000000000011 1.5000000000000002 1979.5000000000002 1928.5000000000002 1974.5000000000002 683.50000000000011 1998.5000000000002 1973.5000000000002 2091.5000000000005 1976.5000000000002 1999.5000000000002 1.0000000180025095e-35 427.50000000000006 359.00000000000006
decision_type=2 2 2 2 2 2 2 2 2 2 2 2 2 10 2 2 2 2 2 2 2 2 2 2 2 2 2 2 2 2
left_child=1 6 5 -4 9 8 13 14 -2 17 -11 27 26 21 20 23 -10 -3 -12 -20 -6 -1 -7 -14 -25 29 -9 -8 -28 -15
right_child=2 4 3 -5 7 22 11 12 16 10 18 -13 15 25 -16 -17 -18 -19 19 -21 -22 -23 -24 24 -26 -27 28 -29 -30 -31
leaf_value=-688.55624450683592 -119.71997395833334 -335.29202125812401 1060.1210809326171 2237.0619531249999 -164.11885545813519 928.94887369791672 -354.27427377009735 75.097249665436919 415.93758736350321 -323.78645507812502 -37.422174103565702 13.781667740561746 211.06054528808593 -536.63265694754466 397.31630447387698 898.15419655539779 815.18573918269237 -105.62584440879451 127.42626003797665 445.87215980747766 145.10951108579283 -489.59245671452703 1316.4107050781249 409.85839899553571 753.530857421875 -287.08051121226526 193.62054104891689 -177.15341693474264 520.90188867187499 -374.56786663104964
leaf_weight=64 21 58 32 22 46 21 69 27 44 26 39 88 20 56 24 22 26 103 86 35 27 111 20 35 20 114 22 85 20 77
leaf_count=64 21 58 32 22 46 21 69 27 44 26 39 88 20 56 24 22 26 103 86 35 27 111 20 35 20 114 22 85 20 77
internal_value=0 -130.265 892.244 1539.62 102.239 627.41 -343.86 288.995 406.395 -39.3087 89.7111 -158.224 422.299 -450.314 60.8668 550.477 564.23 -188.363 156.904 219.539 -49.7467 -562.356 1117.95 448.492 534.83 -370.933 242.106 -256.513 349.469 -442.806
internal_weight=0 1274 186 54 610 132 664 263 91 347 186 242 166 422 97 97 70 161 160 121 73 175 41 75 55 247 69 154 42 133
internal_count=1460 1274 186 54 610 132 664 263 91 347 186 242 166 422 97 97 70 161 160 121 73 175 41 75 55 247 69 154 42 133
is_linear=0
shrinkage=0.01


Tree=35
num_leaves=31
num_cat=0
split_feature=1 0 0 5 3 7 3 6 2 0 0 0 8 3 0 5 0 3 7 6 6 2 0 0 5 1 2 5 2 3
split_gain=1.66316e+12 6.20098e+11 3.14919e+11 2.00094e+11 1.58142e+11 1.28903e+11 1.22376e+11 1.02054e+11 8.86874e+10 7.73013e+10 5.1645e+10 4.56744e+10 3.97881e+10 3.75375e+10 3.17855e+10 2.68379e+10 2.11062e+10 1.79408e+10 1.58155e+10 1.54898e+10 1.4348e+10 1.3453e+10 1.28191e+10 1.23756e+10 1.27683e+10 1.10257e+10 9.99969e+09 9.67814e+09 8.22321e+09 7.18186e+09
threshold=2.5000000000000004 1415.0000000000002 2661.0000000000005 1162.5000000000002 1980.5000000000002 1144.5000000000002 1990.5000000000002 1.0000000180025095e-35 1025.0000000000002 2035.5000000000002 1966.0000000000002 1919.5000000000002 1958.5000000000002 1983.5000000000002 1642.5000000000002 1108.0000000000002 1727.0000000000002 1976.5000000000002 685.00000000000011 1.5000000000000002 1.0000000180025095e-35 1618.5000000000002 911.00000000000011 2241.5000000000005 913.50000000000011 1.5000000000000002 893.50000000000011 811.00000000000011 1223.5000000000002 1912.5000000000002
decision_type=2 2 2 2 2 2 2 2 2 2 2 2 10 2 2 2 2 2 2 2 2 2 2 2 2 2 2 2 2 2
left_child=1 5 3 6 7 12 -2 29 16 15 21 -5 18 20 27 25 -6 26 -1 -11 -7 -8 -20 24 -16 -9 -14 -10 -12 -3
right_child=2 4 -4 11 8 13 10 9 14 19 28 -13 17 -15 23 -17 -18 -19 22 -21 -22 -23 -24 -25 -26 -27 -28 -29 -30 -31
leaf_value=-766.63922626201929 -183.24843017578127 -477.21251743861603 2068.768568359375 965.67446191406259 -0.054999892928383566 -365.47452058211616 341.29156116832388 -226.68755412708629 184.43026435089112 245.29496424057902 793.27678753396742 1612.730887044271 -470.87873005022323 61.811337777751767 373.89210759943182 287.56950427827383 239.70762315538195 -230.7389017043003 -631.79095853365379 577.10719401041661 -133.16914516388425 652.45164469401038 -442.5842433975883 793.80521093749996 664.22432896205362 -33.880389910687462 -330.42489320716078 449.53735049293158 1063.704873046875 -269.95015942085081
leaf_weight=26 20 21 20 20 88 46 33 44 40 34 23 24 105 73 33 21 63 86 52 24 63 24 115 20 28 91 98 21 22 82
leaf_count=26 20 21 20 20 88 46 33 44 40 34 23 24 105 73 33 21 63 86 52 24 63 24 115 20 28 91 98 21 22 82
internal_value=0 -128.962 883.321 740.496 101.216 -340.421 531.995 -53.581 268.693 70.8981 672.239 1318.61 -426.038 -113.677 448.101 -44.9898 99.9784 -351.79 -537.217 382.597 -231.206 472.306 -501.499 577.936 507.159 -96.7212 -403.073 275.697 925.486 -312.208
internal_weight=0 1274 186 166 610 664 122 317 293 214 102 44 482 182 142 156 151 289 193 58 109 57 167 81 61 135 203 61 45 103
internal_count=1460 1274 186 166 610 664 122 317 293 214 102 44 482 182 142 156 151 289 193 58 109 57 167 81 61 135 203 61 45 103
is_linear=0
shrinkage=0.01


Tree=36
num_leaves=31
num_cat=0
split_feature=1 0 5 4 4 2 2 0 6 7 9 0 2 8 8 5 5 4 0 3 2 2 3 0 3 3 0 1 6 5
split_gain=1.63006e+12 6.07758e+11 3.08981e+11 1.72078e+11 1.55271e+11 1.26587e+11 1.20229e+11 1.16672e+11 5.63944e+10 5.38305e+10 4.94288e+10 4.14827e+10 4.00387e+10 3.55995e+10 3.37549e+10 3.11766e+10 2.96595e+10 2.46124e+10 2.43175e+10 1.91184e+10 1.75577e+10 1.47729e+10 1.18833e+10 1.1775e+10 1.08382e+10 1.05429e+10 8.60738e+09 8.56409e+09 7.94113e+09 7.71936e+09
threshold=2.5000000000000004 1415.0000000000002 1311.5000000000002 1992.5000000000002 1983.5000000000002 1050.5000000000002 1012.5000000000001 1970.5000000000002 1.0000000180025095e-35 1422.5000000000002 794.00000000000011 1638.5000000000002 1498.5000000000002 1920.5000000000002 1983.5000000000002 1200.5000000000002 1002.5000000000001 1976.5000000000002 2293.0000000000005 1994.5000000000002 764.50000000000011 560.50000000000011 1973.5000000000002 1928.5000000000002 1965.5000000000002 1956.5000000000002 1201.5000000000002 1.5000000000000002 1.0000000180025095e-35 427.50000000000006
decision_type=2 2 2 2 2 2 2 2 2 2 2 2 2 10 10 2 2 2 2 2 2 2 2 2 2 2 2 2 2 2
left_child=1 5 3 -2 8 13 10 16 -3 -9 27 19 24 -1 28 18 -5 21 22 -8 -12 -15 -13 -22 -10 -19 -16 -6 -7 -21
right_child=2 4 -4 7 6 14 11 9 12 -11 20 15 -14 17 26 -17 -18 25 -20 29 23 -23 -24 -25 -26 -27 -28 -29 -30 -31
